digraph Tree {
node [shape=box] ;
0 [label="Agency_Code <= 0.5\ngini = 0.436\nsamples = 2002\nvalue = [1359, 643]\nclass = No"] ;
1 [label="Sales <= 15.5\ngini = 0.483\nsamples = 647\nvalue = [263, 384]\nclass = Yes"] ;
0 -> 1 [labeldistance=2.5, labelangle=45, headlabel="True"] ;
2 [label="Sales <= 3.56\ngini = 0.259\nsamples = 72\nvalue = [61, 11]\nclass = No"] ;
1 -> 2 ;
3 [label="gini = 0.0\nsamples = 24\nvalue = [24, 0]\nclass = No"] ;
2 -> 3 ;
4 [label="Commision <= 3.775\ngini = 0.353\nsamples = 48\nvalue = [37, 11]\nclass = No"] ;
2 -> 4 ;
5 [label="Commision <= 1.125\ngini = 0.466\nsamples = 27\nvalue = [17, 10]\nclass = No"] ;
4 -> 5 ;
6 [label="gini = 0.0\nsamples = 1\nvalue = [0, 1]\nclass = Yes"] ;
5 -> 6 ;
7 [label="Duration <= 69.0\ngini = 0.453\nsamples = 26\nvalue = [17, 9]\nclass = No"] ;
5 -> 7 ;
8 [label="Duration <= 4.5\ngini = 0.483\nsamples = 22\nvalue = [13, 9]\nclass = No"] ;
7 -> 8 ;
9 [label="Commision <= 1.92\ngini = 0.278\nsamples = 6\nvalue = [5, 1]\nclass = No"] ;
8 -> 9 ;
10 [label="gini = 0.0\nsamples = 3\nvalue = [3, 0]\nclass = No"] ;
9 -> 10 ;
11 [label="Sales <= 7.375\ngini = 0.444\nsamples = 3\nvalue = [2, 1]\nclass = No"] ;
9 -> 11 ;
12 [label="gini = 0.0\nsamples = 1\nvalue = [0, 1]\nclass = Yes"] ;
11 -> 12 ;
13 [label="gini = 0.0\nsamples = 2\nvalue = [2, 0]\nclass = No"] ;
11 -> 13 ;
14 [label="Product Name <= 3.0\ngini = 0.5\nsamples = 16\nvalue = [8, 8]\nclass = No"] ;
8 -> 14 ;
15 [label="Duration <= 48.5\ngini = 0.498\nsamples = 15\nvalue = [8, 7]\nclass = No"] ;
14 -> 15 ;
16 [label="Sales <= 8.34\ngini = 0.49\nsamples = 14\nvalue = [8, 6]\nclass = No"] ;
15 -> 16 ;
17 [label="gini = 0.0\nsamples = 2\nvalue = [2, 0]\nclass = No"] ;
16 -> 17 ;
18 [label="Commision <= 2.97\ngini = 0.5\nsamples = 12\nvalue = [6, 6]\nclass = No"] ;
16 -> 18 ;
19 [label="gini = 0.0\nsamples = 1\nvalue = [0, 1]\nclass = Yes"] ;
18 -> 19 ;
20 [label="Duration <= 19.5\ngini = 0.496\nsamples = 11\nvalue = [6, 5]\nclass = No"] ;
18 -> 20 ;
21 [label="Duration <= 14.5\ngini = 0.494\nsamples = 9\nvalue = [4, 5]\nclass = Yes"] ;
20 -> 21 ;
22 [label="Duration <= 6.5\ngini = 0.5\nsamples = 8\nvalue = [4, 4]\nclass = No"] ;
21 -> 22 ;
23 [label="Duration <= 5.5\ngini = 0.48\nsamples = 5\nvalue = [2, 3]\nclass = Yes"] ;
22 -> 23 ;
24 [label="gini = 0.5\nsamples = 2\nvalue = [1, 1]\nclass = No"] ;
23 -> 24 ;
25 [label="gini = 0.444\nsamples = 3\nvalue = [1, 2]\nclass = Yes"] ;
23 -> 25 ;
26 [label="Duration <= 10.0\ngini = 0.444\nsamples = 3\nvalue = [2, 1]\nclass = No"] ;
22 -> 26 ;
27 [label="gini = 0.0\nsamples = 1\nvalue = [1, 0]\nclass = No"] ;
26 -> 27 ;
28 [label="gini = 0.5\nsamples = 2\nvalue = [1, 1]\nclass = No"] ;
26 -> 28 ;
29 [label="gini = 0.0\nsamples = 1\nvalue = [0, 1]\nclass = Yes"] ;
21 -> 29 ;
30 [label="gini = 0.0\nsamples = 2\nvalue = [2, 0]\nclass = No"] ;
20 -> 30 ;
31 [label="gini = 0.0\nsamples = 1\nvalue = [0, 1]\nclass = Yes"] ;
15 -> 31 ;
32 [label="gini = 0.0\nsamples = 1\nvalue = [0, 1]\nclass = Yes"] ;
14 -> 32 ;
33 [label="gini = 0.0\nsamples = 4\nvalue = [4, 0]\nclass = No"] ;
7 -> 33 ;
34 [label="Duration <= 7.5\ngini = 0.091\nsamples = 21\nvalue = [20, 1]\nclass = No"] ;
4 -> 34 ;
35 [label="Duration <= 5.5\ngini = 0.219\nsamples = 8\nvalue = [7, 1]\nclass = No"] ;
34 -> 35 ;
36 [label="gini = 0.0\nsamples = 5\nvalue = [5, 0]\nclass = No"] ;
35 -> 36 ;
37 [label="gini = 0.444\nsamples = 3\nvalue = [2, 1]\nclass = No"] ;
35 -> 37 ;
38 [label="gini = 0.0\nsamples = 13\nvalue = [13, 0]\nclass = No"] ;
34 -> 38 ;
39 [label="Sales <= 55.75\ngini = 0.456\nsamples = 575\nvalue = [202, 373]\nclass = Yes"] ;
1 -> 39 ;
40 [label="Commision <= 12.39\ngini = 0.497\nsamples = 296\nvalue = [137, 159]\nclass = Yes"] ;
39 -> 40 ;
41 [label="Duration <= 72.0\ngini = 0.489\nsamples = 252\nvalue = [107, 145]\nclass = Yes"] ;
40 -> 41 ;
42 [label="Duration <= 7.5\ngini = 0.484\nsamples = 237\nvalue = [97, 140]\nclass = Yes"] ;
41 -> 42 ;
43 [label="Sales <= 34.5\ngini = 0.497\nsamples = 52\nvalue = [28, 24]\nclass = No"] ;
42 -> 43 ;
44 [label="Duration <= 2.5\ngini = 0.5\nsamples = 47\nvalue = [23, 24]\nclass = Yes"] ;
43 -> 44 ;
45 [label="gini = 0.0\nsamples = 2\nvalue = [0, 2]\nclass = Yes"] ;
44 -> 45 ;
46 [label="Commision <= 5.125\ngini = 0.5\nsamples = 45\nvalue = [23, 22]\nclass = No"] ;
44 -> 46 ;
47 [label="Product Name <= 2.0\ngini = 0.49\nsamples = 21\nvalue = [9, 12]\nclass = Yes"] ;
46 -> 47 ;
48 [label="Sales <= 16.775\ngini = 0.475\nsamples = 18\nvalue = [7, 11]\nclass = Yes"] ;
47 -> 48 ;
49 [label="Duration <= 5.5\ngini = 0.5\nsamples = 8\nvalue = [4, 4]\nclass = No"] ;
48 -> 49 ;
50 [label="Duration <= 4.5\ngini = 0.48\nsamples = 5\nvalue = [3, 2]\nclass = No"] ;
49 -> 50 ;
51 [label="gini = 0.5\nsamples = 2\nvalue = [1, 1]\nclass = No"] ;
50 -> 51 ;
52 [label="gini = 0.444\nsamples = 3\nvalue = [2, 1]\nclass = No"] ;
50 -> 52 ;
53 [label="gini = 0.444\nsamples = 3\nvalue = [1, 2]\nclass = Yes"] ;
49 -> 53 ;
54 [label="Duration <= 6.5\ngini = 0.42\nsamples = 10\nvalue = [3, 7]\nclass = Yes"] ;
48 -> 54 ;
55 [label="Sales <= 17.775\ngini = 0.278\nsamples = 6\nvalue = [1, 5]\nclass = Yes"] ;
54 -> 55 ;
56 [label="gini = 0.0\nsamples = 2\nvalue = [0, 2]\nclass = Yes"] ;
55 -> 56 ;
57 [label="Duration <= 5.5\ngini = 0.375\nsamples = 4\nvalue = [1, 3]\nclass = Yes"] ;
55 -> 57 ;
58 [label="Duration <= 4.0\ngini = 0.5\nsamples = 2\nvalue = [1, 1]\nclass = No"] ;
57 -> 58 ;
59 [label="gini = 0.0\nsamples = 1\nvalue = [0, 1]\nclass = Yes"] ;
58 -> 59 ;
60 [label="gini = 0.0\nsamples = 1\nvalue = [1, 0]\nclass = No"] ;
58 -> 60 ;
61 [label="gini = 0.0\nsamples = 2\nvalue = [0, 2]\nclass = Yes"] ;
57 -> 61 ;
62 [label="Commision <= 4.595\ngini = 0.5\nsamples = 4\nvalue = [2, 2]\nclass = No"] ;
54 -> 62 ;
63 [label="gini = 0.0\nsamples = 1\nvalue = [1, 0]\nclass = No"] ;
62 -> 63 ;
64 [label="Commision <= 4.9\ngini = 0.444\nsamples = 3\nvalue = [1, 2]\nclass = Yes"] ;
62 -> 64 ;
65 [label="gini = 0.0\nsamples = 1\nvalue = [0, 1]\nclass = Yes"] ;
64 -> 65 ;
66 [label="gini = 0.5\nsamples = 2\nvalue = [1, 1]\nclass = No"] ;
64 -> 66 ;
67 [label="Duration <= 4.5\ngini = 0.444\nsamples = 3\nvalue = [2, 1]\nclass = No"] ;
47 -> 67 ;
68 [label="gini = 0.0\nsamples = 2\nvalue = [2, 0]\nclass = No"] ;
67 -> 68 ;
69 [label="gini = 0.0\nsamples = 1\nvalue = [0, 1]\nclass = Yes"] ;
67 -> 69 ;
70 [label="Sales <= 22.0\ngini = 0.486\nsamples = 24\nvalue = [14, 10]\nclass = No"] ;
46 -> 70 ;
71 [label="Duration <= 4.5\ngini = 0.245\nsamples = 7\nvalue = [6, 1]\nclass = No"] ;
70 -> 71 ;
72 [label="gini = 0.0\nsamples = 3\nvalue = [3, 0]\nclass = No"] ;
71 -> 72 ;
73 [label="Duration <= 5.5\ngini = 0.375\nsamples = 4\nvalue = [3, 1]\nclass = No"] ;
71 -> 73 ;
74 [label="gini = 0.5\nsamples = 2\nvalue = [1, 1]\nclass = No"] ;
73 -> 74 ;
75 [label="gini = 0.0\nsamples = 2\nvalue = [2, 0]\nclass = No"] ;
73 -> 75 ;
76 [label="Duration <= 4.5\ngini = 0.498\nsamples = 17\nvalue = [8, 9]\nclass = Yes"] ;
70 -> 76 ;
77 [label="gini = 0.0\nsamples = 3\nvalue = [0, 3]\nclass = Yes"] ;
76 -> 77 ;
78 [label="Sales <= 33.0\ngini = 0.49\nsamples = 14\nvalue = [8, 6]\nclass = No"] ;
76 -> 78 ;
79 [label="Sales <= 29.25\ngini = 0.473\nsamples = 13\nvalue = [8, 5]\nclass = No"] ;
78 -> 79 ;
80 [label="Commision <= 7.095\ngini = 0.496\nsamples = 11\nvalue = [6, 5]\nclass = No"] ;
79 -> 80 ;
81 [label="Duration <= 6.5\ngini = 0.5\nsamples = 8\nvalue = [4, 4]\nclass = No"] ;
80 -> 81 ;
82 [label="Commision <= 6.845\ngini = 0.49\nsamples = 7\nvalue = [4, 3]\nclass = No"] ;
81 -> 82 ;
83 [label="Duration <= 5.5\ngini = 0.444\nsamples = 6\nvalue = [4, 2]\nclass = No"] ;
82 -> 83 ;
84 [label="gini = 0.5\nsamples = 4\nvalue = [2, 2]\nclass = No"] ;
83 -> 84 ;
85 [label="gini = 0.0\nsamples = 2\nvalue = [2, 0]\nclass = No"] ;
83 -> 85 ;
86 [label="gini = 0.0\nsamples = 1\nvalue = [0, 1]\nclass = Yes"] ;
82 -> 86 ;
87 [label="gini = 0.0\nsamples = 1\nvalue = [0, 1]\nclass = Yes"] ;
81 -> 87 ;
88 [label="Duration <= 6.5\ngini = 0.444\nsamples = 3\nvalue = [2, 1]\nclass = No"] ;
80 -> 88 ;
89 [label="gini = 0.5\nsamples = 2\nvalue = [1, 1]\nclass = No"] ;
88 -> 89 ;
90 [label="gini = 0.0\nsamples = 1\nvalue = [1, 0]\nclass = No"] ;
88 -> 90 ;
91 [label="gini = 0.0\nsamples = 2\nvalue = [2, 0]\nclass = No"] ;
79 -> 91 ;
92 [label="gini = 0.0\nsamples = 1\nvalue = [0, 1]\nclass = Yes"] ;
78 -> 92 ;
93 [label="gini = 0.0\nsamples = 5\nvalue = [5, 0]\nclass = No"] ;
43 -> 93 ;
94 [label="Commision <= 9.875\ngini = 0.468\nsamples = 185\nvalue = [69, 116]\nclass = Yes"] ;
42 -> 94 ;
95 [label="Duration <= 66.5\ngini = 0.479\nsamples = 153\nvalue = [61, 92]\nclass = Yes"] ;
94 -> 95 ;
96 [label="Duration <= 62.0\ngini = 0.483\nsamples = 150\nvalue = [61, 89]\nclass = Yes"] ;
95 -> 96 ;
97 [label="Commision <= 3.69\ngini = 0.479\nsamples = 148\nvalue = [59, 89]\nclass = Yes"] ;
96 -> 97 ;
98 [label="gini = 0.0\nsamples = 1\nvalue = [1, 0]\nclass = No"] ;
97 -> 98 ;
99 [label="Product Name <= 1.0\ngini = 0.478\nsamples = 147\nvalue = [58, 89]\nclass = Yes"] ;
97 -> 99 ;
100 [label="Sales <= 28.25\ngini = 0.461\nsamples = 100\nvalue = [36, 64]\nclass = Yes"] ;
99 -> 100 ;
101 [label="Sales <= 23.45\ngini = 0.434\nsamples = 69\nvalue = [22, 47]\nclass = Yes"] ;
100 -> 101 ;
102 [label="Duration <= 20.5\ngini = 0.472\nsamples = 42\nvalue = [16, 26]\nclass = Yes"] ;
101 -> 102 ;
103 [label="Duration <= 10.5\ngini = 0.444\nsamples = 33\nvalue = [11, 22]\nclass = Yes"] ;
102 -> 103 ;
104 [label="Commision <= 4.75\ngini = 0.5\nsamples = 10\nvalue = [5, 5]\nclass = No"] ;
103 -> 104 ;
105 [label="gini = 0.0\nsamples = 3\nvalue = [0, 3]\nclass = Yes"] ;
104 -> 105 ;
106 [label="Commision <= 5.125\ngini = 0.408\nsamples = 7\nvalue = [5, 2]\nclass = No"] ;
104 -> 106 ;
107 [label="Duration <= 8.5\ngini = 0.444\nsamples = 6\nvalue = [4, 2]\nclass = No"] ;
106 -> 107 ;
108 [label="gini = 0.0\nsamples = 1\nvalue = [1, 0]\nclass = No"] ;
107 -> 108 ;
109 [label="Duration <= 9.5\ngini = 0.48\nsamples = 5\nvalue = [3, 2]\nclass = No"] ;
107 -> 109 ;
110 [label="gini = 0.5\nsamples = 4\nvalue = [2, 2]\nclass = No"] ;
109 -> 110 ;
111 [label="gini = 0.0\nsamples = 1\nvalue = [1, 0]\nclass = No"] ;
109 -> 111 ;
112 [label="gini = 0.0\nsamples = 1\nvalue = [1, 0]\nclass = No"] ;
106 -> 112 ;
113 [label="Commision <= 4.625\ngini = 0.386\nsamples = 23\nvalue = [6, 17]\nclass = Yes"] ;
103 -> 113 ;
114 [label="Duration <= 19.5\ngini = 0.48\nsamples = 10\nvalue = [4, 6]\nclass = Yes"] ;
113 -> 114 ;
115 [label="Duration <= 17.5\ngini = 0.494\nsamples = 9\nvalue = [4, 5]\nclass = Yes"] ;
114 -> 115 ;
116 [label="Duration <= 16.5\ngini = 0.444\nsamples = 6\nvalue = [2, 4]\nclass = Yes"] ;
115 -> 116 ;
117 [label="Commision <= 4.125\ngini = 0.48\nsamples = 5\nvalue = [2, 3]\nclass = Yes"] ;
116 -> 117 ;
118 [label="Duration <= 11.5\ngini = 0.444\nsamples = 3\nvalue = [1, 2]\nclass = Yes"] ;
117 -> 118 ;
119 [label="gini = 0.0\nsamples = 1\nvalue = [1, 0]\nclass = No"] ;
118 -> 119 ;
120 [label="gini = 0.0\nsamples = 2\nvalue = [0, 2]\nclass = Yes"] ;
118 -> 120 ;
121 [label="Duration <= 13.5\ngini = 0.5\nsamples = 2\nvalue = [1, 1]\nclass = No"] ;
117 -> 121 ;
122 [label="gini = 0.0\nsamples = 1\nvalue = [0, 1]\nclass = Yes"] ;
121 -> 122 ;
123 [label="gini = 0.0\nsamples = 1\nvalue = [1, 0]\nclass = No"] ;
121 -> 123 ;
124 [label="gini = 0.0\nsamples = 1\nvalue = [0, 1]\nclass = Yes"] ;
116 -> 124 ;
125 [label="Duration <= 18.5\ngini = 0.444\nsamples = 3\nvalue = [2, 1]\nclass = No"] ;
115 -> 125 ;
126 [label="gini = 0.0\nsamples = 1\nvalue = [1, 0]\nclass = No"] ;
125 -> 126 ;
127 [label="Commision <= 4.125\ngini = 0.5\nsamples = 2\nvalue = [1, 1]\nclass = No"] ;
125 -> 127 ;
128 [label="gini = 0.0\nsamples = 1\nvalue = [1, 0]\nclass = No"] ;
127 -> 128 ;
129 [label="gini = 0.0\nsamples = 1\nvalue = [0, 1]\nclass = Yes"] ;
127 -> 129 ;
130 [label="gini = 0.0\nsamples = 1\nvalue = [0, 1]\nclass = Yes"] ;
114 -> 130 ;
131 [label="Commision <= 5.64\ngini = 0.26\nsamples = 13\nvalue = [2, 11]\nclass = Yes"] ;
113 -> 131 ;
132 [label="gini = 0.0\nsamples = 8\nvalue = [0, 8]\nclass = Yes"] ;
131 -> 132 ;
133 [label="Duration <= 11.5\ngini = 0.48\nsamples = 5\nvalue = [2, 3]\nclass = Yes"] ;
131 -> 133 ;
134 [label="gini = 0.0\nsamples = 1\nvalue = [1, 0]\nclass = No"] ;
133 -> 134 ;
135 [label="Duration <= 15.5\ngini = 0.375\nsamples = 4\nvalue = [1, 3]\nclass = Yes"] ;
133 -> 135 ;
136 [label="gini = 0.0\nsamples = 2\nvalue = [0, 2]\nclass = Yes"] ;
135 -> 136 ;
137 [label="Duration <= 18.5\ngini = 0.5\nsamples = 2\nvalue = [1, 1]\nclass = No"] ;
135 -> 137 ;
138 [label="gini = 0.0\nsamples = 1\nvalue = [1, 0]\nclass = No"] ;
137 -> 138 ;
139 [label="gini = 0.0\nsamples = 1\nvalue = [0, 1]\nclass = Yes"] ;
137 -> 139 ;
140 [label="Sales <= 19.125\ngini = 0.494\nsamples = 9\nvalue = [5, 4]\nclass = No"] ;
102 -> 140 ;
141 [label="Duration <= 26.0\ngini = 0.32\nsamples = 5\nvalue = [1, 4]\nclass = Yes"] ;
140 -> 141 ;
142 [label="gini = 0.0\nsamples = 1\nvalue = [1, 0]\nclass = No"] ;
141 -> 142 ;
143 [label="gini = 0.0\nsamples = 4\nvalue = [0, 4]\nclass = Yes"] ;
141 -> 143 ;
144 [label="gini = 0.0\nsamples = 4\nvalue = [4, 0]\nclass = No"] ;
140 -> 144 ;
145 [label="Duration <= 20.5\ngini = 0.346\nsamples = 27\nvalue = [6, 21]\nclass = Yes"] ;
101 -> 145 ;
146 [label="Duration <= 13.5\ngini = 0.408\nsamples = 21\nvalue = [6, 15]\nclass = Yes"] ;
145 -> 146 ;
147 [label="Commision <= 6.69\ngini = 0.305\nsamples = 16\nvalue = [3, 13]\nclass = Yes"] ;
146 -> 147 ;
148 [label="gini = 0.0\nsamples = 5\nvalue = [0, 5]\nclass = Yes"] ;
147 -> 148 ;
149 [label="Duration <= 12.0\ngini = 0.397\nsamples = 11\nvalue = [3, 8]\nclass = Yes"] ;
147 -> 149 ;
150 [label="Duration <= 10.5\ngini = 0.42\nsamples = 10\nvalue = [3, 7]\nclass = Yes"] ;
149 -> 150 ;
151 [label="gini = 0.375\nsamples = 4\nvalue = [1, 3]\nclass = Yes"] ;
150 -> 151 ;
152 [label="gini = 0.444\nsamples = 6\nvalue = [2, 4]\nclass = Yes"] ;
150 -> 152 ;
153 [label="gini = 0.0\nsamples = 1\nvalue = [0, 1]\nclass = Yes"] ;
149 -> 153 ;
154 [label="Commision <= 6.255\ngini = 0.48\nsamples = 5\nvalue = [3, 2]\nclass = No"] ;
146 -> 154 ;
155 [label="gini = 0.0\nsamples = 2\nvalue = [2, 0]\nclass = No"] ;
154 -> 155 ;
156 [label="Duration <= 15.5\ngini = 0.444\nsamples = 3\nvalue = [1, 2]\nclass = Yes"] ;
154 -> 156 ;
157 [label="gini = 0.0\nsamples = 1\nvalue = [1, 0]\nclass = No"] ;
156 -> 157 ;
158 [label="gini = 0.0\nsamples = 2\nvalue = [0, 2]\nclass = Yes"] ;
156 -> 158 ;
159 [label="gini = 0.0\nsamples = 6\nvalue = [0, 6]\nclass = Yes"] ;
145 -> 159 ;
160 [label="Commision <= 9.235\ngini = 0.495\nsamples = 31\nvalue = [14, 17]\nclass = Yes"] ;
100 -> 160 ;
161 [label="Sales <= 34.875\ngini = 0.499\nsamples = 25\nvalue = [13, 12]\nclass = No"] ;
160 -> 161 ;
162 [label="Sales <= 32.25\ngini = 0.496\nsamples = 22\nvalue = [10, 12]\nclass = Yes"] ;
161 -> 162 ;
163 [label="Duration <= 9.5\ngini = 0.48\nsamples = 10\nvalue = [6, 4]\nclass = No"] ;
162 -> 163 ;
164 [label="gini = 0.0\nsamples = 1\nvalue = [0, 1]\nclass = Yes"] ;
163 -> 164 ;
165 [label="Sales <= 29.7\ngini = 0.444\nsamples = 9\nvalue = [6, 3]\nclass = No"] ;
163 -> 165 ;
166 [label="Duration <= 25.0\ngini = 0.5\nsamples = 6\nvalue = [3, 3]\nclass = No"] ;
165 -> 166 ;
167 [label="Duration <= 18.5\ngini = 0.48\nsamples = 5\nvalue = [3, 2]\nclass = No"] ;
166 -> 167 ;
168 [label="Duration <= 15.0\ngini = 0.5\nsamples = 4\nvalue = [2, 2]\nclass = No"] ;
167 -> 168 ;
169 [label="Duration <= 12.0\ngini = 0.444\nsamples = 3\nvalue = [2, 1]\nclass = No"] ;
168 -> 169 ;
170 [label="gini = 0.5\nsamples = 2\nvalue = [1, 1]\nclass = No"] ;
169 -> 170 ;
171 [label="gini = 0.0\nsamples = 1\nvalue = [1, 0]\nclass = No"] ;
169 -> 171 ;
172 [label="gini = 0.0\nsamples = 1\nvalue = [0, 1]\nclass = Yes"] ;
168 -> 172 ;
173 [label="gini = 0.0\nsamples = 1\nvalue = [1, 0]\nclass = No"] ;
167 -> 173 ;
174 [label="gini = 0.0\nsamples = 1\nvalue = [0, 1]\nclass = Yes"] ;
166 -> 174 ;
175 [label="gini = 0.0\nsamples = 3\nvalue = [3, 0]\nclass = No"] ;
165 -> 175 ;
176 [label="Duration <= 55.5\ngini = 0.444\nsamples = 12\nvalue = [4, 8]\nclass = Yes"] ;
162 -> 176 ;
177 [label="Duration <= 39.0\ngini = 0.397\nsamples = 11\nvalue = [3, 8]\nclass = Yes"] ;
176 -> 177 ;
178 [label="Duration <= 33.5\ngini = 0.469\nsamples = 8\nvalue = [3, 5]\nclass = Yes"] ;
177 -> 178 ;
179 [label="Duration <= 14.5\ngini = 0.408\nsamples = 7\nvalue = [2, 5]\nclass = Yes"] ;
178 -> 179 ;
180 [label="gini = 0.0\nsamples = 2\nvalue = [0, 2]\nclass = Yes"] ;
179 -> 180 ;
181 [label="Duration <= 27.0\ngini = 0.48\nsamples = 5\nvalue = [2, 3]\nclass = Yes"] ;
179 -> 181 ;
182 [label="Sales <= 34.0\ngini = 0.444\nsamples = 3\nvalue = [2, 1]\nclass = No"] ;
181 -> 182 ;
183 [label="gini = 0.0\nsamples = 1\nvalue = [1, 0]\nclass = No"] ;
182 -> 183 ;
184 [label="Duration <= 16.5\ngini = 0.5\nsamples = 2\nvalue = [1, 1]\nclass = No"] ;
182 -> 184 ;
185 [label="gini = 0.0\nsamples = 1\nvalue = [1, 0]\nclass = No"] ;
184 -> 185 ;
186 [label="gini = 0.0\nsamples = 1\nvalue = [0, 1]\nclass = Yes"] ;
184 -> 186 ;
187 [label="gini = 0.0\nsamples = 2\nvalue = [0, 2]\nclass = Yes"] ;
181 -> 187 ;
188 [label="gini = 0.0\nsamples = 1\nvalue = [1, 0]\nclass = No"] ;
178 -> 188 ;
189 [label="gini = 0.0\nsamples = 3\nvalue = [0, 3]\nclass = Yes"] ;
177 -> 189 ;
190 [label="gini = 0.0\nsamples = 1\nvalue = [1, 0]\nclass = No"] ;
176 -> 190 ;
191 [label="gini = 0.0\nsamples = 3\nvalue = [3, 0]\nclass = No"] ;
161 -> 191 ;
192 [label="Duration <= 31.0\ngini = 0.278\nsamples = 6\nvalue = [1, 5]\nclass = Yes"] ;
160 -> 192 ;
193 [label="Duration <= 27.0\ngini = 0.444\nsamples = 3\nvalue = [1, 2]\nclass = Yes"] ;
192 -> 193 ;
194 [label="gini = 0.0\nsamples = 2\nvalue = [0, 2]\nclass = Yes"] ;
193 -> 194 ;
195 [label="gini = 0.0\nsamples = 1\nvalue = [1, 0]\nclass = No"] ;
193 -> 195 ;
196 [label="gini = 0.0\nsamples = 3\nvalue = [0, 3]\nclass = Yes"] ;
192 -> 196 ;
197 [label="Sales <= 22.21\ngini = 0.498\nsamples = 47\nvalue = [22, 25]\nclass = Yes"] ;
99 -> 197 ;
198 [label="Duration <= 22.0\ngini = 0.219\nsamples = 8\nvalue = [7, 1]\nclass = No"] ;
197 -> 198 ;
199 [label="gini = 0.0\nsamples = 5\nvalue = [5, 0]\nclass = No"] ;
198 -> 199 ;
200 [label="Sales <= 19.925\ngini = 0.444\nsamples = 3\nvalue = [2, 1]\nclass = No"] ;
198 -> 200 ;
201 [label="gini = 0.0\nsamples = 1\nvalue = [0, 1]\nclass = Yes"] ;
200 -> 201 ;
202 [label="gini = 0.0\nsamples = 2\nvalue = [2, 0]\nclass = No"] ;
200 -> 202 ;
203 [label="Commision <= 9.5\ngini = 0.473\nsamples = 39\nvalue = [15, 24]\nclass = Yes"] ;
197 -> 203 ;
204 [label="Product Name <= 3.5\ngini = 0.42\nsamples = 30\nvalue = [9, 21]\nclass = Yes"] ;
203 -> 204 ;
205 [label="gini = 0.0\nsamples = 1\nvalue = [1, 0]\nclass = No"] ;
204 -> 205 ;
206 [label="Duration <= 49.5\ngini = 0.4\nsamples = 29\nvalue = [8, 21]\nclass = Yes"] ;
204 -> 206 ;
207 [label="Commision <= 8.775\ngini = 0.375\nsamples = 28\nvalue = [7, 21]\nclass = Yes"] ;
206 -> 207 ;
208 [label="Duration <= 35.0\ngini = 0.413\nsamples = 24\nvalue = [7, 17]\nclass = Yes"] ;
207 -> 208 ;
209 [label="Sales <= 34.15\ngini = 0.434\nsamples = 22\nvalue = [7, 15]\nclass = Yes"] ;
208 -> 209 ;
210 [label="Duration <= 30.5\ngini = 0.408\nsamples = 21\nvalue = [6, 15]\nclass = Yes"] ;
209 -> 210 ;
211 [label="Duration <= 23.5\ngini = 0.375\nsamples = 20\nvalue = [5, 15]\nclass = Yes"] ;
210 -> 211 ;
212 [label="Duration <= 21.0\ngini = 0.415\nsamples = 17\nvalue = [5, 12]\nclass = Yes"] ;
211 -> 212 ;
213 [label="Sales <= 29.45\ngini = 0.375\nsamples = 16\nvalue = [4, 12]\nclass = Yes"] ;
212 -> 213 ;
214 [label="Commision <= 6.75\ngini = 0.49\nsamples = 7\nvalue = [3, 4]\nclass = Yes"] ;
213 -> 214 ;
215 [label="Duration <= 9.5\ngini = 0.32\nsamples = 5\nvalue = [1, 4]\nclass = Yes"] ;
214 -> 215 ;
216 [label="gini = 0.0\nsamples = 3\nvalue = [0, 3]\nclass = Yes"] ;
215 -> 216 ;
217 [label="Duration <= 14.5\ngini = 0.5\nsamples = 2\nvalue = [1, 1]\nclass = No"] ;
215 -> 217 ;
218 [label="gini = 0.0\nsamples = 1\nvalue = [1, 0]\nclass = No"] ;
217 -> 218 ;
219 [label="gini = 0.0\nsamples = 1\nvalue = [0, 1]\nclass = Yes"] ;
217 -> 219 ;
220 [label="gini = 0.0\nsamples = 2\nvalue = [2, 0]\nclass = No"] ;
214 -> 220 ;
221 [label="Sales <= 31.5\ngini = 0.198\nsamples = 9\nvalue = [1, 8]\nclass = Yes"] ;
213 -> 221 ;
222 [label="gini = 0.0\nsamples = 6\nvalue = [0, 6]\nclass = Yes"] ;
221 -> 222 ;
223 [label="Duration <= 15.0\ngini = 0.444\nsamples = 3\nvalue = [1, 2]\nclass = Yes"] ;
221 -> 223 ;
224 [label="gini = 0.0\nsamples = 1\nvalue = [0, 1]\nclass = Yes"] ;
223 -> 224 ;
225 [label="Duration <= 16.5\ngini = 0.5\nsamples = 2\nvalue = [1, 1]\nclass = No"] ;
223 -> 225 ;
226 [label="gini = 0.0\nsamples = 1\nvalue = [1, 0]\nclass = No"] ;
225 -> 226 ;
227 [label="gini = 0.0\nsamples = 1\nvalue = [0, 1]\nclass = Yes"] ;
225 -> 227 ;
228 [label="gini = 0.0\nsamples = 1\nvalue = [1, 0]\nclass = No"] ;
212 -> 228 ;
229 [label="gini = 0.0\nsamples = 3\nvalue = [0, 3]\nclass = Yes"] ;
211 -> 229 ;
230 [label="gini = 0.0\nsamples = 1\nvalue = [1, 0]\nclass = No"] ;
210 -> 230 ;
231 [label="gini = 0.0\nsamples = 1\nvalue = [1, 0]\nclass = No"] ;
209 -> 231 ;
232 [label="gini = 0.0\nsamples = 2\nvalue = [0, 2]\nclass = Yes"] ;
208 -> 232 ;
233 [label="gini = 0.0\nsamples = 4\nvalue = [0, 4]\nclass = Yes"] ;
207 -> 233 ;
234 [label="gini = 0.0\nsamples = 1\nvalue = [1, 0]\nclass = No"] ;
206 -> 234 ;
235 [label="Duration <= 35.0\ngini = 0.444\nsamples = 9\nvalue = [6, 3]\nclass = No"] ;
203 -> 235 ;
236 [label="Duration <= 21.5\ngini = 0.49\nsamples = 7\nvalue = [4, 3]\nclass = No"] ;
235 -> 236 ;
237 [label="Duration <= 12.0\ngini = 0.444\nsamples = 6\nvalue = [4, 2]\nclass = No"] ;
236 -> 237 ;
238 [label="Duration <= 10.5\ngini = 0.5\nsamples = 4\nvalue = [2, 2]\nclass = No"] ;
237 -> 238 ;
239 [label="Duration <= 9.5\ngini = 0.444\nsamples = 3\nvalue = [2, 1]\nclass = No"] ;
238 -> 239 ;
240 [label="gini = 0.5\nsamples = 2\nvalue = [1, 1]\nclass = No"] ;
239 -> 240 ;
241 [label="gini = 0.0\nsamples = 1\nvalue = [1, 0]\nclass = No"] ;
239 -> 241 ;
242 [label="gini = 0.0\nsamples = 1\nvalue = [0, 1]\nclass = Yes"] ;
238 -> 242 ;
243 [label="gini = 0.0\nsamples = 2\nvalue = [2, 0]\nclass = No"] ;
237 -> 243 ;
244 [label="gini = 0.0\nsamples = 1\nvalue = [0, 1]\nclass = Yes"] ;
236 -> 244 ;
245 [label="gini = 0.0\nsamples = 2\nvalue = [2, 0]\nclass = No"] ;
235 -> 245 ;
246 [label="gini = 0.0\nsamples = 2\nvalue = [2, 0]\nclass = No"] ;
96 -> 246 ;
247 [label="gini = 0.0\nsamples = 3\nvalue = [0, 3]\nclass = Yes"] ;
95 -> 247 ;
248 [label="Sales <= 46.15\ngini = 0.375\nsamples = 32\nvalue = [8, 24]\nclass = Yes"] ;
94 -> 248 ;
249 [label="Sales <= 41.75\ngini = 0.18\nsamples = 10\nvalue = [1, 9]\nclass = Yes"] ;
248 -> 249 ;
250 [label="Sales <= 40.75\ngini = 0.375\nsamples = 4\nvalue = [1, 3]\nclass = Yes"] ;
249 -> 250 ;
251 [label="gini = 0.0\nsamples = 3\nvalue = [0, 3]\nclass = Yes"] ;
250 -> 251 ;
252 [label="gini = 0.0\nsamples = 1\nvalue = [1, 0]\nclass = No"] ;
250 -> 252 ;
253 [label="gini = 0.0\nsamples = 6\nvalue = [0, 6]\nclass = Yes"] ;
249 -> 253 ;
254 [label="Duration <= 21.5\ngini = 0.434\nsamples = 22\nvalue = [7, 15]\nclass = Yes"] ;
248 -> 254 ;
255 [label="Sales <= 48.0\ngini = 0.36\nsamples = 17\nvalue = [4, 13]\nclass = Yes"] ;
254 -> 255 ;
256 [label="Duration <= 15.0\ngini = 0.426\nsamples = 13\nvalue = [4, 9]\nclass = Yes"] ;
255 -> 256 ;
257 [label="Duration <= 13.5\ngini = 0.49\nsamples = 7\nvalue = [3, 4]\nclass = Yes"] ;
256 -> 257 ;
258 [label="Commision <= 11.815\ngini = 0.32\nsamples = 5\nvalue = [1, 4]\nclass = Yes"] ;
257 -> 258 ;
259 [label="gini = 0.0\nsamples = 2\nvalue = [0, 2]\nclass = Yes"] ;
258 -> 259 ;
260 [label="Duration <= 9.0\ngini = 0.444\nsamples = 3\nvalue = [1, 2]\nclass = Yes"] ;
258 -> 260 ;
261 [label="gini = 0.0\nsamples = 1\nvalue = [0, 1]\nclass = Yes"] ;
260 -> 261 ;
262 [label="gini = 0.5\nsamples = 2\nvalue = [1, 1]\nclass = No"] ;
260 -> 262 ;
263 [label="gini = 0.0\nsamples = 2\nvalue = [2, 0]\nclass = No"] ;
257 -> 263 ;
264 [label="Sales <= 46.9\ngini = 0.278\nsamples = 6\nvalue = [1, 5]\nclass = Yes"] ;
256 -> 264 ;
265 [label="Duration <= 18.5\ngini = 0.5\nsamples = 2\nvalue = [1, 1]\nclass = No"] ;
264 -> 265 ;
266 [label="gini = 0.0\nsamples = 1\nvalue = [1, 0]\nclass = No"] ;
265 -> 266 ;
267 [label="gini = 0.0\nsamples = 1\nvalue = [0, 1]\nclass = Yes"] ;
265 -> 267 ;
268 [label="gini = 0.0\nsamples = 4\nvalue = [0, 4]\nclass = Yes"] ;
264 -> 268 ;
269 [label="gini = 0.0\nsamples = 4\nvalue = [0, 4]\nclass = Yes"] ;
255 -> 269 ;
270 [label="Product Name <= 2.0\ngini = 0.48\nsamples = 5\nvalue = [3, 2]\nclass = No"] ;
254 -> 270 ;
271 [label="gini = 0.0\nsamples = 2\nvalue = [2, 0]\nclass = No"] ;
270 -> 271 ;
272 [label="Duration <= 24.5\ngini = 0.444\nsamples = 3\nvalue = [1, 2]\nclass = Yes"] ;
270 -> 272 ;
273 [label="gini = 0.0\nsamples = 1\nvalue = [1, 0]\nclass = No"] ;
272 -> 273 ;
274 [label="gini = 0.0\nsamples = 2\nvalue = [0, 2]\nclass = Yes"] ;
272 -> 274 ;
275 [label="Sales <= 32.025\ngini = 0.444\nsamples = 15\nvalue = [10, 5]\nclass = No"] ;
41 -> 275 ;
276 [label="gini = 0.0\nsamples = 6\nvalue = [6, 0]\nclass = No"] ;
275 -> 276 ;
277 [label="Commision <= 9.19\ngini = 0.494\nsamples = 9\nvalue = [4, 5]\nclass = Yes"] ;
275 -> 277 ;
278 [label="gini = 0.0\nsamples = 3\nvalue = [0, 3]\nclass = Yes"] ;
277 -> 278 ;
279 [label="Duration <= 86.5\ngini = 0.444\nsamples = 6\nvalue = [4, 2]\nclass = No"] ;
277 -> 279 ;
280 [label="gini = 0.0\nsamples = 2\nvalue = [2, 0]\nclass = No"] ;
279 -> 280 ;
281 [label="Duration <= 121.0\ngini = 0.5\nsamples = 4\nvalue = [2, 2]\nclass = No"] ;
279 -> 281 ;
282 [label="gini = 0.0\nsamples = 2\nvalue = [0, 2]\nclass = Yes"] ;
281 -> 282 ;
283 [label="gini = 0.0\nsamples = 2\nvalue = [2, 0]\nclass = No"] ;
281 -> 283 ;
284 [label="Sales <= 49.595\ngini = 0.434\nsamples = 44\nvalue = [30, 14]\nclass = No"] ;
40 -> 284 ;
285 [label="Sales <= 19.25\ngini = 0.095\nsamples = 20\nvalue = [19, 1]\nclass = No"] ;
284 -> 285 ;
286 [label="Product Name <= 2.0\ngini = 0.5\nsamples = 2\nvalue = [1, 1]\nclass = No"] ;
285 -> 286 ;
287 [label="gini = 0.0\nsamples = 1\nvalue = [1, 0]\nclass = No"] ;
286 -> 287 ;
288 [label="gini = 0.0\nsamples = 1\nvalue = [0, 1]\nclass = Yes"] ;
286 -> 288 ;
289 [label="gini = 0.0\nsamples = 18\nvalue = [18, 0]\nclass = No"] ;
285 -> 289 ;
290 [label="Duration <= 8.5\ngini = 0.497\nsamples = 24\nvalue = [11, 13]\nclass = Yes"] ;
284 -> 290 ;
291 [label="gini = 0.0\nsamples = 3\nvalue = [3, 0]\nclass = No"] ;
290 -> 291 ;
292 [label="Commision <= 12.94\ngini = 0.472\nsamples = 21\nvalue = [8, 13]\nclass = Yes"] ;
290 -> 292 ;
293 [label="gini = 0.0\nsamples = 3\nvalue = [0, 3]\nclass = Yes"] ;
292 -> 293 ;
294 [label="Duration <= 29.0\ngini = 0.494\nsamples = 18\nvalue = [8, 10]\nclass = Yes"] ;
292 -> 294 ;
295 [label="Duration <= 15.0\ngini = 0.48\nsamples = 10\nvalue = [6, 4]\nclass = No"] ;
294 -> 295 ;
296 [label="Commision <= 13.44\ngini = 0.48\nsamples = 5\nvalue = [2, 3]\nclass = Yes"] ;
295 -> 296 ;
297 [label="gini = 0.0\nsamples = 1\nvalue = [1, 0]\nclass = No"] ;
296 -> 297 ;
298 [label="Product Name <= 2.0\ngini = 0.375\nsamples = 4\nvalue = [1, 3]\nclass = Yes"] ;
296 -> 298 ;
299 [label="gini = 0.0\nsamples = 1\nvalue = [0, 1]\nclass = Yes"] ;
298 -> 299 ;
300 [label="Duration <= 13.5\ngini = 0.444\nsamples = 3\nvalue = [1, 2]\nclass = Yes"] ;
298 -> 300 ;
301 [label="gini = 0.5\nsamples = 2\nvalue = [1, 1]\nclass = No"] ;
300 -> 301 ;
302 [label="gini = 0.0\nsamples = 1\nvalue = [0, 1]\nclass = Yes"] ;
300 -> 302 ;
303 [label="Commision <= 13.315\ngini = 0.32\nsamples = 5\nvalue = [4, 1]\nclass = No"] ;
295 -> 303 ;
304 [label="gini = 0.0\nsamples = 1\nvalue = [0, 1]\nclass = Yes"] ;
303 -> 304 ;
305 [label="gini = 0.0\nsamples = 4\nvalue = [4, 0]\nclass = No"] ;
303 -> 305 ;
306 [label="Duration <= 34.0\ngini = 0.375\nsamples = 8\nvalue = [2, 6]\nclass = Yes"] ;
294 -> 306 ;
307 [label="gini = 0.0\nsamples = 3\nvalue = [0, 3]\nclass = Yes"] ;
306 -> 307 ;
308 [label="Duration <= 45.0\ngini = 0.48\nsamples = 5\nvalue = [2, 3]\nclass = Yes"] ;
306 -> 308 ;
309 [label="gini = 0.0\nsamples = 1\nvalue = [1, 0]\nclass = No"] ;
308 -> 309 ;
310 [label="Duration <= 59.5\ngini = 0.375\nsamples = 4\nvalue = [1, 3]\nclass = Yes"] ;
308 -> 310 ;
311 [label="gini = 0.0\nsamples = 2\nvalue = [0, 2]\nclass = Yes"] ;
310 -> 311 ;
312 [label="Duration <= 90.0\ngini = 0.5\nsamples = 2\nvalue = [1, 1]\nclass = No"] ;
310 -> 312 ;
313 [label="gini = 0.0\nsamples = 1\nvalue = [1, 0]\nclass = No"] ;
312 -> 313 ;
314 [label="gini = 0.0\nsamples = 1\nvalue = [0, 1]\nclass = Yes"] ;
312 -> 314 ;
315 [label="Duration <= 10.5\ngini = 0.357\nsamples = 279\nvalue = [65, 214]\nclass = Yes"] ;
39 -> 315 ;
316 [label="gini = 0.0\nsamples = 7\nvalue = [7, 0]\nclass = No"] ;
315 -> 316 ;
317 [label="Commision <= 59.94\ngini = 0.336\nsamples = 272\nvalue = [58, 214]\nclass = Yes"] ;
315 -> 317 ;
318 [label="Duration <= 384.5\ngini = 0.372\nsamples = 190\nvalue = [47, 143]\nclass = Yes"] ;
317 -> 318 ;
319 [label="Sales <= 70.175\ngini = 0.354\nsamples = 183\nvalue = [42, 141]\nclass = Yes"] ;
318 -> 319 ;
320 [label="Duration <= 27.5\ngini = 0.18\nsamples = 40\nvalue = [4, 36]\nclass = Yes"] ;
319 -> 320 ;
321 [label="Commision <= 15.25\ngini = 0.32\nsamples = 20\nvalue = [4, 16]\nclass = Yes"] ;
320 -> 321 ;
322 [label="gini = 0.0\nsamples = 8\nvalue = [0, 8]\nclass = Yes"] ;
321 -> 322 ;
323 [label="Commision <= 16.315\ngini = 0.444\nsamples = 12\nvalue = [4, 8]\nclass = Yes"] ;
321 -> 323 ;
324 [label="Duration <= 21.0\ngini = 0.494\nsamples = 9\nvalue = [4, 5]\nclass = Yes"] ;
323 -> 324 ;
325 [label="Duration <= 13.0\ngini = 0.408\nsamples = 7\nvalue = [2, 5]\nclass = Yes"] ;
324 -> 325 ;
326 [label="Sales <= 62.125\ngini = 0.5\nsamples = 2\nvalue = [1, 1]\nclass = No"] ;
325 -> 326 ;
327 [label="gini = 0.0\nsamples = 1\nvalue = [1, 0]\nclass = No"] ;
326 -> 327 ;
328 [label="gini = 0.0\nsamples = 1\nvalue = [0, 1]\nclass = Yes"] ;
326 -> 328 ;
329 [label="Duration <= 17.5\ngini = 0.32\nsamples = 5\nvalue = [1, 4]\nclass = Yes"] ;
325 -> 329 ;
330 [label="gini = 0.0\nsamples = 3\nvalue = [0, 3]\nclass = Yes"] ;
329 -> 330 ;
331 [label="gini = 0.5\nsamples = 2\nvalue = [1, 1]\nclass = No"] ;
329 -> 331 ;
332 [label="gini = 0.0\nsamples = 2\nvalue = [2, 0]\nclass = No"] ;
324 -> 332 ;
333 [label="gini = 0.0\nsamples = 3\nvalue = [0, 3]\nclass = Yes"] ;
323 -> 333 ;
334 [label="gini = 0.0\nsamples = 20\nvalue = [0, 20]\nclass = Yes"] ;
320 -> 334 ;
335 [label="Commision <= 2.125\ngini = 0.39\nsamples = 143\nvalue = [38, 105]\nclass = Yes"] ;
319 -> 335 ;
336 [label="gini = 0.0\nsamples = 1\nvalue = [1, 0]\nclass = No"] ;
335 -> 336 ;
337 [label="Sales <= 71.425\ngini = 0.385\nsamples = 142\nvalue = [37, 105]\nclass = Yes"] ;
335 -> 337 ;
338 [label="gini = 0.0\nsamples = 1\nvalue = [1, 0]\nclass = No"] ;
337 -> 338 ;
339 [label="Duration <= 366.5\ngini = 0.38\nsamples = 141\nvalue = [36, 105]\nclass = Yes"] ;
337 -> 339 ;
340 [label="Commision <= 33.065\ngini = 0.408\nsamples = 105\nvalue = [30, 75]\nclass = Yes"] ;
339 -> 340 ;
341 [label="Commision <= 24.25\ngini = 0.32\nsamples = 60\nvalue = [12, 48]\nclass = Yes"] ;
340 -> 341 ;
342 [label="Commision <= 23.69\ngini = 0.386\nsamples = 46\nvalue = [12, 34]\nclass = Yes"] ;
341 -> 342 ;
343 [label="Duration <= 64.0\ngini = 0.369\nsamples = 45\nvalue = [11, 34]\nclass = Yes"] ;
342 -> 343 ;
344 [label="Duration <= 33.0\ngini = 0.411\nsamples = 38\nvalue = [11, 27]\nclass = Yes"] ;
343 -> 344 ;
345 [label="Duration <= 23.5\ngini = 0.278\nsamples = 24\nvalue = [4, 20]\nclass = Yes"] ;
344 -> 345 ;
346 [label="Duration <= 20.5\ngini = 0.346\nsamples = 18\nvalue = [4, 14]\nclass = Yes"] ;
345 -> 346 ;
347 [label="Duration <= 17.5\ngini = 0.231\nsamples = 15\nvalue = [2, 13]\nclass = Yes"] ;
346 -> 347 ;
348 [label="Duration <= 16.5\ngini = 0.346\nsamples = 9\nvalue = [2, 7]\nclass = Yes"] ;
347 -> 348 ;
349 [label="Sales <= 73.125\ngini = 0.219\nsamples = 8\nvalue = [1, 7]\nclass = Yes"] ;
348 -> 349 ;
350 [label="gini = 0.5\nsamples = 2\nvalue = [1, 1]\nclass = No"] ;
349 -> 350 ;
351 [label="gini = 0.0\nsamples = 6\nvalue = [0, 6]\nclass = Yes"] ;
349 -> 351 ;
352 [label="gini = 0.0\nsamples = 1\nvalue = [1, 0]\nclass = No"] ;
348 -> 352 ;
353 [label="gini = 0.0\nsamples = 6\nvalue = [0, 6]\nclass = Yes"] ;
347 -> 353 ;
354 [label="Commision <= 11.0\ngini = 0.444\nsamples = 3\nvalue = [2, 1]\nclass = No"] ;
346 -> 354 ;
355 [label="gini = 0.0\nsamples = 1\nvalue = [0, 1]\nclass = Yes"] ;
354 -> 355 ;
356 [label="gini = 0.0\nsamples = 2\nvalue = [2, 0]\nclass = No"] ;
354 -> 356 ;
357 [label="gini = 0.0\nsamples = 6\nvalue = [0, 6]\nclass = Yes"] ;
345 -> 357 ;
358 [label="Duration <= 39.5\ngini = 0.5\nsamples = 14\nvalue = [7, 7]\nclass = No"] ;
344 -> 358 ;
359 [label="Commision <= 14.065\ngini = 0.32\nsamples = 5\nvalue = [4, 1]\nclass = No"] ;
358 -> 359 ;
360 [label="gini = 0.0\nsamples = 1\nvalue = [0, 1]\nclass = Yes"] ;
359 -> 360 ;
361 [label="gini = 0.0\nsamples = 4\nvalue = [4, 0]\nclass = No"] ;
359 -> 361 ;
362 [label="Duration <= 61.0\ngini = 0.444\nsamples = 9\nvalue = [3, 6]\nclass = Yes"] ;
358 -> 362 ;
363 [label="Commision <= 22.88\ngini = 0.375\nsamples = 8\nvalue = [2, 6]\nclass = Yes"] ;
362 -> 363 ;
364 [label="Duration <= 45.5\ngini = 0.245\nsamples = 7\nvalue = [1, 6]\nclass = Yes"] ;
363 -> 364 ;
365 [label="Sales <= 72.25\ngini = 0.444\nsamples = 3\nvalue = [1, 2]\nclass = Yes"] ;
364 -> 365 ;
366 [label="gini = 0.0\nsamples = 1\nvalue = [1, 0]\nclass = No"] ;
365 -> 366 ;
367 [label="gini = 0.0\nsamples = 2\nvalue = [0, 2]\nclass = Yes"] ;
365 -> 367 ;
368 [label="gini = 0.0\nsamples = 4\nvalue = [0, 4]\nclass = Yes"] ;
364 -> 368 ;
369 [label="gini = 0.0\nsamples = 1\nvalue = [1, 0]\nclass = No"] ;
363 -> 369 ;
370 [label="gini = 0.0\nsamples = 1\nvalue = [1, 0]\nclass = No"] ;
362 -> 370 ;
371 [label="gini = 0.0\nsamples = 7\nvalue = [0, 7]\nclass = Yes"] ;
343 -> 371 ;
372 [label="gini = 0.0\nsamples = 1\nvalue = [1, 0]\nclass = No"] ;
342 -> 372 ;
373 [label="gini = 0.0\nsamples = 14\nvalue = [0, 14]\nclass = Yes"] ;
341 -> 373 ;
374 [label="Product Name <= 3.5\ngini = 0.48\nsamples = 45\nvalue = [18, 27]\nclass = Yes"] ;
340 -> 374 ;
375 [label="Duration <= 80.5\ngini = 0.346\nsamples = 9\nvalue = [7, 2]\nclass = No"] ;
374 -> 375 ;
376 [label="Duration <= 59.5\ngini = 0.48\nsamples = 5\nvalue = [3, 2]\nclass = No"] ;
375 -> 376 ;
377 [label="gini = 0.0\nsamples = 2\nvalue = [2, 0]\nclass = No"] ;
376 -> 377 ;
378 [label="Commision <= 54.44\ngini = 0.444\nsamples = 3\nvalue = [1, 2]\nclass = Yes"] ;
376 -> 378 ;
379 [label="gini = 0.0\nsamples = 2\nvalue = [0, 2]\nclass = Yes"] ;
378 -> 379 ;
380 [label="gini = 0.0\nsamples = 1\nvalue = [1, 0]\nclass = No"] ;
378 -> 380 ;
381 [label="gini = 0.0\nsamples = 4\nvalue = [4, 0]\nclass = No"] ;
375 -> 381 ;
382 [label="Duration <= 365.5\ngini = 0.424\nsamples = 36\nvalue = [11, 25]\nclass = Yes"] ;
374 -> 382 ;
383 [label="Commision <= 43.605\ngini = 0.384\nsamples = 27\nvalue = [7, 20]\nclass = Yes"] ;
382 -> 383 ;
384 [label="gini = 0.0\nsamples = 3\nvalue = [0, 3]\nclass = Yes"] ;
383 -> 384 ;
385 [label="Duration <= 72.5\ngini = 0.413\nsamples = 24\nvalue = [7, 17]\nclass = Yes"] ;
383 -> 385 ;
386 [label="gini = 0.0\nsamples = 1\nvalue = [1, 0]\nclass = No"] ;
385 -> 386 ;
387 [label="Duration <= 364.5\ngini = 0.386\nsamples = 23\nvalue = [6, 17]\nclass = Yes"] ;
385 -> 387 ;
388 [label="Duration <= 234.0\ngini = 0.278\nsamples = 6\nvalue = [1, 5]\nclass = Yes"] ;
387 -> 388 ;
389 [label="gini = 0.0\nsamples = 1\nvalue = [0, 1]\nclass = Yes"] ;
388 -> 389 ;
390 [label="Sales <= 204.6\ngini = 0.32\nsamples = 5\nvalue = [1, 4]\nclass = Yes"] ;
388 -> 390 ;
391 [label="gini = 0.0\nsamples = 1\nvalue = [0, 1]\nclass = Yes"] ;
390 -> 391 ;
392 [label="gini = 0.375\nsamples = 4\nvalue = [1, 3]\nclass = Yes"] ;
390 -> 392 ;
393 [label="Commision <= 51.15\ngini = 0.415\nsamples = 17\nvalue = [5, 12]\nclass = Yes"] ;
387 -> 393 ;
394 [label="Commision <= 47.63\ngini = 0.375\nsamples = 8\nvalue = [2, 6]\nclass = Yes"] ;
393 -> 394 ;
395 [label="gini = 0.408\nsamples = 7\nvalue = [2, 5]\nclass = Yes"] ;
394 -> 395 ;
396 [label="gini = 0.0\nsamples = 1\nvalue = [0, 1]\nclass = Yes"] ;
394 -> 396 ;
397 [label="gini = 0.444\nsamples = 9\nvalue = [3, 6]\nclass = Yes"] ;
393 -> 397 ;
398 [label="Sales <= 201.925\ngini = 0.494\nsamples = 9\nvalue = [4, 5]\nclass = Yes"] ;
382 -> 398 ;
399 [label="Commision <= 43.605\ngini = 0.48\nsamples = 5\nvalue = [3, 2]\nclass = No"] ;
398 -> 399 ;
400 [label="gini = 0.444\nsamples = 3\nvalue = [2, 1]\nclass = No"] ;
399 -> 400 ;
401 [label="gini = 0.5\nsamples = 2\nvalue = [1, 1]\nclass = No"] ;
399 -> 401 ;
402 [label="gini = 0.375\nsamples = 4\nvalue = [1, 3]\nclass = Yes"] ;
398 -> 402 ;
403 [label="Duration <= 371.5\ngini = 0.278\nsamples = 36\nvalue = [6, 30]\nclass = Yes"] ;
339 -> 403 ;
404 [label="Sales <= 212.65\ngini = 0.117\nsamples = 16\nvalue = [1, 15]\nclass = Yes"] ;
403 -> 404 ;
405 [label="Duration <= 367.5\ngini = 0.32\nsamples = 5\nvalue = [1, 4]\nclass = Yes"] ;
404 -> 405 ;
406 [label="gini = 0.0\nsamples = 1\nvalue = [1, 0]\nclass = No"] ;
405 -> 406 ;
407 [label="gini = 0.0\nsamples = 4\nvalue = [0, 4]\nclass = Yes"] ;
405 -> 407 ;
408 [label="gini = 0.0\nsamples = 11\nvalue = [0, 11]\nclass = Yes"] ;
404 -> 408 ;
409 [label="Sales <= 224.7\ngini = 0.375\nsamples = 20\nvalue = [5, 15]\nclass = Yes"] ;
403 -> 409 ;
410 [label="Duration <= 372.5\ngini = 0.332\nsamples = 19\nvalue = [4, 15]\nclass = Yes"] ;
409 -> 410 ;
411 [label="Sales <= 198.575\ngini = 0.5\nsamples = 2\nvalue = [1, 1]\nclass = No"] ;
410 -> 411 ;
412 [label="gini = 0.0\nsamples = 1\nvalue = [0, 1]\nclass = Yes"] ;
411 -> 412 ;
413 [label="gini = 0.0\nsamples = 1\nvalue = [1, 0]\nclass = No"] ;
411 -> 413 ;
414 [label="Sales <= 161.5\ngini = 0.291\nsamples = 17\nvalue = [3, 14]\nclass = Yes"] ;
410 -> 414 ;
415 [label="Duration <= 377.5\ngini = 0.444\nsamples = 3\nvalue = [1, 2]\nclass = Yes"] ;
414 -> 415 ;
416 [label="gini = 0.0\nsamples = 1\nvalue = [1, 0]\nclass = No"] ;
415 -> 416 ;
417 [label="gini = 0.0\nsamples = 2\nvalue = [0, 2]\nclass = Yes"] ;
415 -> 417 ;
418 [label="Duration <= 376.5\ngini = 0.245\nsamples = 14\nvalue = [2, 12]\nclass = Yes"] ;
414 -> 418 ;
419 [label="gini = 0.0\nsamples = 6\nvalue = [0, 6]\nclass = Yes"] ;
418 -> 419 ;
420 [label="Commision <= 52.125\ngini = 0.375\nsamples = 8\nvalue = [2, 6]\nclass = Yes"] ;
418 -> 420 ;
421 [label="Commision <= 49.275\ngini = 0.5\nsamples = 2\nvalue = [1, 1]\nclass = No"] ;
420 -> 421 ;
422 [label="gini = 0.0\nsamples = 1\nvalue = [0, 1]\nclass = Yes"] ;
421 -> 422 ;
423 [label="gini = 0.0\nsamples = 1\nvalue = [1, 0]\nclass = No"] ;
421 -> 423 ;
424 [label="Duration <= 382.5\ngini = 0.278\nsamples = 6\nvalue = [1, 5]\nclass = Yes"] ;
420 -> 424 ;
425 [label="gini = 0.0\nsamples = 3\nvalue = [0, 3]\nclass = Yes"] ;
424 -> 425 ;
426 [label="Duration <= 383.5\ngini = 0.444\nsamples = 3\nvalue = [1, 2]\nclass = Yes"] ;
424 -> 426 ;
427 [label="gini = 0.5\nsamples = 2\nvalue = [1, 1]\nclass = No"] ;
426 -> 427 ;
428 [label="gini = 0.0\nsamples = 1\nvalue = [0, 1]\nclass = Yes"] ;
426 -> 428 ;
429 [label="gini = 0.0\nsamples = 1\nvalue = [1, 0]\nclass = No"] ;
409 -> 429 ;
430 [label="Sales <= 190.525\ngini = 0.408\nsamples = 7\nvalue = [5, 2]\nclass = No"] ;
318 -> 430 ;
431 [label="gini = 0.0\nsamples = 2\nvalue = [2, 0]\nclass = No"] ;
430 -> 431 ;
432 [label="Commision <= 51.15\ngini = 0.48\nsamples = 5\nvalue = [3, 2]\nclass = No"] ;
430 -> 432 ;
433 [label="gini = 0.0\nsamples = 1\nvalue = [0, 1]\nclass = Yes"] ;
432 -> 433 ;
434 [label="Duration <= 387.5\ngini = 0.375\nsamples = 4\nvalue = [3, 1]\nclass = No"] ;
432 -> 434 ;
435 [label="gini = 0.0\nsamples = 1\nvalue = [0, 1]\nclass = Yes"] ;
434 -> 435 ;
436 [label="gini = 0.0\nsamples = 3\nvalue = [3, 0]\nclass = No"] ;
434 -> 436 ;
437 [label="Commision <= 64.59\ngini = 0.232\nsamples = 82\nvalue = [11, 71]\nclass = Yes"] ;
317 -> 437 ;
438 [label="Duration <= 367.5\ngini = 0.133\nsamples = 42\nvalue = [3, 39]\nclass = Yes"] ;
437 -> 438 ;
439 [label="Duration <= 364.5\ngini = 0.074\nsamples = 26\nvalue = [1, 25]\nclass = Yes"] ;
438 -> 439 ;
440 [label="gini = 0.0\nsamples = 10\nvalue = [0, 10]\nclass = Yes"] ;
439 -> 440 ;
441 [label="Duration <= 365.5\ngini = 0.117\nsamples = 16\nvalue = [1, 15]\nclass = Yes"] ;
439 -> 441 ;
442 [label="gini = 0.18\nsamples = 10\nvalue = [1, 9]\nclass = Yes"] ;
441 -> 442 ;
443 [label="gini = 0.0\nsamples = 6\nvalue = [0, 6]\nclass = Yes"] ;
441 -> 443 ;
444 [label="Duration <= 373.0\ngini = 0.219\nsamples = 16\nvalue = [2, 14]\nclass = Yes"] ;
438 -> 444 ;
445 [label="Duration <= 369.5\ngini = 0.408\nsamples = 7\nvalue = [2, 5]\nclass = Yes"] ;
444 -> 445 ;
446 [label="Duration <= 368.5\ngini = 0.32\nsamples = 5\nvalue = [1, 4]\nclass = Yes"] ;
445 -> 446 ;
447 [label="gini = 0.375\nsamples = 4\nvalue = [1, 3]\nclass = Yes"] ;
446 -> 447 ;
448 [label="gini = 0.0\nsamples = 1\nvalue = [0, 1]\nclass = Yes"] ;
446 -> 448 ;
449 [label="gini = 0.5\nsamples = 2\nvalue = [1, 1]\nclass = No"] ;
445 -> 449 ;
450 [label="gini = 0.0\nsamples = 9\nvalue = [0, 9]\nclass = Yes"] ;
444 -> 450 ;
451 [label="Duration <= 366.5\ngini = 0.32\nsamples = 40\nvalue = [8, 32]\nclass = Yes"] ;
437 -> 451 ;
452 [label="Duration <= 365.5\ngini = 0.43\nsamples = 16\nvalue = [5, 11]\nclass = Yes"] ;
451 -> 452 ;
453 [label="Commision <= 90.735\ngini = 0.337\nsamples = 14\nvalue = [3, 11]\nclass = Yes"] ;
452 -> 453 ;
454 [label="Product Name <= 3.5\ngini = 0.198\nsamples = 9\nvalue = [1, 8]\nclass = Yes"] ;
453 -> 454 ;
455 [label="gini = 0.0\nsamples = 4\nvalue = [0, 4]\nclass = Yes"] ;
454 -> 455 ;
456 [label="Sales <= 299.025\ngini = 0.32\nsamples = 5\nvalue = [1, 4]\nclass = Yes"] ;
454 -> 456 ;
457 [label="gini = 0.0\nsamples = 4\nvalue = [0, 4]\nclass = Yes"] ;
456 -> 457 ;
458 [label="gini = 0.0\nsamples = 1\nvalue = [1, 0]\nclass = No"] ;
456 -> 458 ;
459 [label="Product Name <= 3.5\ngini = 0.48\nsamples = 5\nvalue = [2, 3]\nclass = Yes"] ;
453 -> 459 ;
460 [label="Sales <= 419.3\ngini = 0.444\nsamples = 3\nvalue = [2, 1]\nclass = No"] ;
459 -> 460 ;
461 [label="gini = 0.0\nsamples = 1\nvalue = [1, 0]\nclass = No"] ;
460 -> 461 ;
462 [label="Sales <= 470.375\ngini = 0.5\nsamples = 2\nvalue = [1, 1]\nclass = No"] ;
460 -> 462 ;
463 [label="gini = 0.0\nsamples = 1\nvalue = [0, 1]\nclass = Yes"] ;
462 -> 463 ;
464 [label="gini = 0.0\nsamples = 1\nvalue = [1, 0]\nclass = No"] ;
462 -> 464 ;
465 [label="gini = 0.0\nsamples = 2\nvalue = [0, 2]\nclass = Yes"] ;
459 -> 465 ;
466 [label="gini = 0.0\nsamples = 2\nvalue = [2, 0]\nclass = No"] ;
452 -> 466 ;
467 [label="Duration <= 384.0\ngini = 0.219\nsamples = 24\nvalue = [3, 21]\nclass = Yes"] ;
451 -> 467 ;
468 [label="Duration <= 368.5\ngini = 0.124\nsamples = 15\nvalue = [1, 14]\nclass = Yes"] ;
467 -> 468 ;
469 [label="Commision <= 85.095\ngini = 0.245\nsamples = 7\nvalue = [1, 6]\nclass = Yes"] ;
468 -> 469 ;
470 [label="Duration <= 367.5\ngini = 0.444\nsamples = 3\nvalue = [1, 2]\nclass = Yes"] ;
469 -> 470 ;
471 [label="gini = 0.0\nsamples = 1\nvalue = [0, 1]\nclass = Yes"] ;
470 -> 471 ;
472 [label="Commision <= 68.87\ngini = 0.5\nsamples = 2\nvalue = [1, 1]\nclass = No"] ;
470 -> 472 ;
473 [label="gini = 0.0\nsamples = 1\nvalue = [0, 1]\nclass = Yes"] ;
472 -> 473 ;
474 [label="gini = 0.0\nsamples = 1\nvalue = [1, 0]\nclass = No"] ;
472 -> 474 ;
475 [label="gini = 0.0\nsamples = 4\nvalue = [0, 4]\nclass = Yes"] ;
469 -> 475 ;
476 [label="gini = 0.0\nsamples = 8\nvalue = [0, 8]\nclass = Yes"] ;
468 -> 476 ;
477 [label="Duration <= 385.5\ngini = 0.346\nsamples = 9\nvalue = [2, 7]\nclass = Yes"] ;
467 -> 477 ;
478 [label="gini = 0.0\nsamples = 1\nvalue = [1, 0]\nclass = No"] ;
477 -> 478 ;
479 [label="Sales <= 284.1\ngini = 0.219\nsamples = 8\nvalue = [1, 7]\nclass = Yes"] ;
477 -> 479 ;
480 [label="Sales <= 270.0\ngini = 0.375\nsamples = 4\nvalue = [1, 3]\nclass = Yes"] ;
479 -> 480 ;
481 [label="gini = 0.0\nsamples = 2\nvalue = [0, 2]\nclass = Yes"] ;
480 -> 481 ;
482 [label="Duration <= 397.0\ngini = 0.5\nsamples = 2\nvalue = [1, 1]\nclass = No"] ;
480 -> 482 ;
483 [label="gini = 0.0\nsamples = 1\nvalue = [1, 0]\nclass = No"] ;
482 -> 483 ;
484 [label="gini = 0.0\nsamples = 1\nvalue = [0, 1]\nclass = Yes"] ;
482 -> 484 ;
485 [label="gini = 0.0\nsamples = 4\nvalue = [0, 4]\nclass = Yes"] ;
479 -> 485 ;
486 [label="Sales <= 83.5\ngini = 0.309\nsamples = 1355\nvalue = [1096, 259]\nclass = No"] ;
0 -> 486 [labeldistance=2.5, labelangle=-45, headlabel="False"] ;
487 [label="Product Name <= 1.5\ngini = 0.267\nsamples = 1191\nvalue = [1002, 189]\nclass = No"] ;
486 -> 487 ;
488 [label="Commision <= 10.57\ngini = 0.16\nsamples = 572\nvalue = [522, 50]\nclass = No"] ;
487 -> 488 ;
489 [label="Duration <= 44.5\ngini = 0.126\nsamples = 505\nvalue = [471, 34]\nclass = No"] ;
488 -> 489 ;
490 [label="Duration <= 37.5\ngini = 0.15\nsamples = 366\nvalue = [336, 30]\nclass = No"] ;
489 -> 490 ;
491 [label="Commision <= 8.4\ngini = 0.134\nsamples = 332\nvalue = [308, 24]\nclass = No"] ;
490 -> 491 ;
492 [label="Destination <= 1.5\ngini = 0.121\nsamples = 310\nvalue = [290, 20]\nclass = No"] ;
491 -> 492 ;
493 [label="Sales <= 28.5\ngini = 0.109\nsamples = 294\nvalue = [277, 17]\nclass = No"] ;
492 -> 493 ;
494 [label="Duration <= 26.5\ngini = 0.085\nsamples = 226\nvalue = [216, 10]\nclass = No"] ;
493 -> 494 ;
495 [label="Sales <= 11.5\ngini = 0.06\nsamples = 193\nvalue = [187, 6]\nclass = No"] ;
494 -> 495 ;
496 [label="gini = 0.0\nsamples = 59\nvalue = [59, 0]\nclass = No"] ;
495 -> 496 ;
497 [label="Sales <= 12.5\ngini = 0.086\nsamples = 134\nvalue = [128, 6]\nclass = No"] ;
495 -> 497 ;
498 [label="Duration <= 4.5\ngini = 0.444\nsamples = 6\nvalue = [4, 2]\nclass = No"] ;
497 -> 498 ;
499 [label="gini = 0.0\nsamples = 1\nvalue = [1, 0]\nclass = No"] ;
498 -> 499 ;
500 [label="Duration <= 8.5\ngini = 0.48\nsamples = 5\nvalue = [3, 2]\nclass = No"] ;
498 -> 500 ;
501 [label="gini = 0.0\nsamples = 1\nvalue = [0, 1]\nclass = Yes"] ;
500 -> 501 ;
502 [label="Duration <= 17.5\ngini = 0.375\nsamples = 4\nvalue = [3, 1]\nclass = No"] ;
500 -> 502 ;
503 [label="gini = 0.0\nsamples = 2\nvalue = [2, 0]\nclass = No"] ;
502 -> 503 ;
504 [label="Duration <= 21.5\ngini = 0.5\nsamples = 2\nvalue = [1, 1]\nclass = No"] ;
502 -> 504 ;
505 [label="gini = 0.0\nsamples = 1\nvalue = [0, 1]\nclass = Yes"] ;
504 -> 505 ;
506 [label="gini = 0.0\nsamples = 1\nvalue = [1, 0]\nclass = No"] ;
504 -> 506 ;
507 [label="Duration <= 14.5\ngini = 0.061\nsamples = 128\nvalue = [124, 4]\nclass = No"] ;
497 -> 507 ;
508 [label="Duration <= 10.5\ngini = 0.094\nsamples = 81\nvalue = [77, 4]\nclass = No"] ;
507 -> 508 ;
509 [label="Duration <= 6.5\ngini = 0.064\nsamples = 60\nvalue = [58, 2]\nclass = No"] ;
508 -> 509 ;
510 [label="Commision <= 7.0\ngini = 0.091\nsamples = 42\nvalue = [40, 2]\nclass = No"] ;
509 -> 510 ;
511 [label="Duration <= 5.5\ngini = 0.061\nsamples = 32\nvalue = [31, 1]\nclass = No"] ;
510 -> 511 ;
512 [label="gini = 0.0\nsamples = 26\nvalue = [26, 0]\nclass = No"] ;
511 -> 512 ;
513 [label="Sales <= 17.5\ngini = 0.278\nsamples = 6\nvalue = [5, 1]\nclass = No"] ;
511 -> 513 ;
514 [label="Sales <= 16.0\ngini = 0.5\nsamples = 2\nvalue = [1, 1]\nclass = No"] ;
513 -> 514 ;
515 [label="gini = 0.0\nsamples = 1\nvalue = [1, 0]\nclass = No"] ;
514 -> 515 ;
516 [label="gini = 0.0\nsamples = 1\nvalue = [0, 1]\nclass = Yes"] ;
514 -> 516 ;
517 [label="gini = 0.0\nsamples = 4\nvalue = [4, 0]\nclass = No"] ;
513 -> 517 ;
518 [label="Duration <= 3.5\ngini = 0.18\nsamples = 10\nvalue = [9, 1]\nclass = No"] ;
510 -> 518 ;
519 [label="Duration <= 2.5\ngini = 0.444\nsamples = 3\nvalue = [2, 1]\nclass = No"] ;
518 -> 519 ;
520 [label="gini = 0.0\nsamples = 1\nvalue = [1, 0]\nclass = No"] ;
519 -> 520 ;
521 [label="gini = 0.5\nsamples = 2\nvalue = [1, 1]\nclass = No"] ;
519 -> 521 ;
522 [label="gini = 0.0\nsamples = 7\nvalue = [7, 0]\nclass = No"] ;
518 -> 522 ;
523 [label="gini = 0.0\nsamples = 18\nvalue = [18, 0]\nclass = No"] ;
509 -> 523 ;
524 [label="Sales <= 23.0\ngini = 0.172\nsamples = 21\nvalue = [19, 2]\nclass = No"] ;
508 -> 524 ;
525 [label="Duration <= 11.5\ngini = 0.1\nsamples = 19\nvalue = [18, 1]\nclass = No"] ;
524 -> 525 ;
526 [label="Product Name <= 0.5\ngini = 0.32\nsamples = 5\nvalue = [4, 1]\nclass = No"] ;
525 -> 526 ;
527 [label="Sales <= 20.0\ngini = 0.444\nsamples = 3\nvalue = [2, 1]\nclass = No"] ;
526 -> 527 ;
528 [label="gini = 0.5\nsamples = 2\nvalue = [1, 1]\nclass = No"] ;
527 -> 528 ;
529 [label="gini = 0.0\nsamples = 1\nvalue = [1, 0]\nclass = No"] ;
527 -> 529 ;
530 [label="gini = 0.0\nsamples = 2\nvalue = [2, 0]\nclass = No"] ;
526 -> 530 ;
531 [label="gini = 0.0\nsamples = 14\nvalue = [14, 0]\nclass = No"] ;
525 -> 531 ;
532 [label="Sales <= 26.0\ngini = 0.5\nsamples = 2\nvalue = [1, 1]\nclass = No"] ;
524 -> 532 ;
533 [label="gini = 0.0\nsamples = 1\nvalue = [0, 1]\nclass = Yes"] ;
532 -> 533 ;
534 [label="gini = 0.0\nsamples = 1\nvalue = [1, 0]\nclass = No"] ;
532 -> 534 ;
535 [label="gini = 0.0\nsamples = 47\nvalue = [47, 0]\nclass = No"] ;
507 -> 535 ;
536 [label="Product Name <= 0.5\ngini = 0.213\nsamples = 33\nvalue = [29, 4]\nclass = No"] ;
494 -> 536 ;
537 [label="Duration <= 31.5\ngini = 0.48\nsamples = 5\nvalue = [3, 2]\nclass = No"] ;
536 -> 537 ;
538 [label="Sales <= 20.0\ngini = 0.444\nsamples = 3\nvalue = [1, 2]\nclass = Yes"] ;
537 -> 538 ;
539 [label="gini = 0.5\nsamples = 2\nvalue = [1, 1]\nclass = No"] ;
538 -> 539 ;
540 [label="gini = 0.0\nsamples = 1\nvalue = [0, 1]\nclass = Yes"] ;
538 -> 540 ;
541 [label="gini = 0.0\nsamples = 2\nvalue = [2, 0]\nclass = No"] ;
537 -> 541 ;
542 [label="Duration <= 34.5\ngini = 0.133\nsamples = 28\nvalue = [26, 2]\nclass = No"] ;
536 -> 542 ;
543 [label="Duration <= 32.5\ngini = 0.188\nsamples = 19\nvalue = [17, 2]\nclass = No"] ;
542 -> 543 ;
544 [label="Sales <= 11.0\ngini = 0.124\nsamples = 15\nvalue = [14, 1]\nclass = No"] ;
543 -> 544 ;
545 [label="Duration <= 28.5\ngini = 0.278\nsamples = 6\nvalue = [5, 1]\nclass = No"] ;
544 -> 545 ;
546 [label="Duration <= 27.5\ngini = 0.444\nsamples = 3\nvalue = [2, 1]\nclass = No"] ;
545 -> 546 ;
547 [label="gini = 0.0\nsamples = 1\nvalue = [1, 0]\nclass = No"] ;
546 -> 547 ;
548 [label="Sales <= 5.0\ngini = 0.5\nsamples = 2\nvalue = [1, 1]\nclass = No"] ;
546 -> 548 ;
549 [label="gini = 0.0\nsamples = 1\nvalue = [1, 0]\nclass = No"] ;
548 -> 549 ;
550 [label="gini = 0.0\nsamples = 1\nvalue = [0, 1]\nclass = Yes"] ;
548 -> 550 ;
551 [label="gini = 0.0\nsamples = 3\nvalue = [3, 0]\nclass = No"] ;
545 -> 551 ;
552 [label="gini = 0.0\nsamples = 9\nvalue = [9, 0]\nclass = No"] ;
544 -> 552 ;
553 [label="Sales <= 15.0\ngini = 0.375\nsamples = 4\nvalue = [3, 1]\nclass = No"] ;
543 -> 553 ;
554 [label="gini = 0.0\nsamples = 2\nvalue = [2, 0]\nclass = No"] ;
553 -> 554 ;
555 [label="Sales <= 20.5\ngini = 0.5\nsamples = 2\nvalue = [1, 1]\nclass = No"] ;
553 -> 555 ;
556 [label="gini = 0.0\nsamples = 1\nvalue = [0, 1]\nclass = Yes"] ;
555 -> 556 ;
557 [label="gini = 0.0\nsamples = 1\nvalue = [1, 0]\nclass = No"] ;
555 -> 557 ;
558 [label="gini = 0.0\nsamples = 9\nvalue = [9, 0]\nclass = No"] ;
542 -> 558 ;
559 [label="Sales <= 38.5\ngini = 0.185\nsamples = 68\nvalue = [61, 7]\nclass = No"] ;
493 -> 559 ;
560 [label="Sales <= 33.5\ngini = 0.285\nsamples = 29\nvalue = [24, 5]\nclass = No"] ;
559 -> 560 ;
561 [label="Sales <= 31.5\ngini = 0.188\nsamples = 19\nvalue = [17, 2]\nclass = No"] ;
560 -> 561 ;
562 [label="Duration <= 13.0\ngini = 0.32\nsamples = 10\nvalue = [8, 2]\nclass = No"] ;
561 -> 562 ;
563 [label="gini = 0.0\nsamples = 4\nvalue = [4, 0]\nclass = No"] ;
562 -> 563 ;
564 [label="Sales <= 30.5\ngini = 0.444\nsamples = 6\nvalue = [4, 2]\nclass = No"] ;
562 -> 564 ;
565 [label="Duration <= 22.5\ngini = 0.32\nsamples = 5\nvalue = [4, 1]\nclass = No"] ;
564 -> 565 ;
566 [label="Duration <= 18.0\ngini = 0.444\nsamples = 3\nvalue = [2, 1]\nclass = No"] ;
565 -> 566 ;
567 [label="gini = 0.0\nsamples = 1\nvalue = [1, 0]\nclass = No"] ;
566 -> 567 ;
568 [label="gini = 0.5\nsamples = 2\nvalue = [1, 1]\nclass = No"] ;
566 -> 568 ;
569 [label="gini = 0.0\nsamples = 2\nvalue = [2, 0]\nclass = No"] ;
565 -> 569 ;
570 [label="gini = 0.0\nsamples = 1\nvalue = [0, 1]\nclass = Yes"] ;
564 -> 570 ;
571 [label="gini = 0.0\nsamples = 9\nvalue = [9, 0]\nclass = No"] ;
561 -> 571 ;
572 [label="Duration <= 13.0\ngini = 0.42\nsamples = 10\nvalue = [7, 3]\nclass = No"] ;
560 -> 572 ;
573 [label="Sales <= 34.5\ngini = 0.245\nsamples = 7\nvalue = [6, 1]\nclass = No"] ;
572 -> 573 ;
574 [label="gini = 0.0\nsamples = 1\nvalue = [0, 1]\nclass = Yes"] ;
573 -> 574 ;
575 [label="gini = 0.0\nsamples = 6\nvalue = [6, 0]\nclass = No"] ;
573 -> 575 ;
576 [label="Duration <= 26.0\ngini = 0.444\nsamples = 3\nvalue = [1, 2]\nclass = Yes"] ;
572 -> 576 ;
577 [label="gini = 0.0\nsamples = 2\nvalue = [0, 2]\nclass = Yes"] ;
576 -> 577 ;
578 [label="gini = 0.0\nsamples = 1\nvalue = [1, 0]\nclass = No"] ;
576 -> 578 ;
579 [label="Duration <= 17.5\ngini = 0.097\nsamples = 39\nvalue = [37, 2]\nclass = No"] ;
559 -> 579 ;
580 [label="Duration <= 9.5\ngini = 0.165\nsamples = 22\nvalue = [20, 2]\nclass = No"] ;
579 -> 580 ;
581 [label="gini = 0.0\nsamples = 12\nvalue = [12, 0]\nclass = No"] ;
580 -> 581 ;
582 [label="Sales <= 64.5\ngini = 0.32\nsamples = 10\nvalue = [8, 2]\nclass = No"] ;
580 -> 582 ;
583 [label="Sales <= 58.0\ngini = 0.48\nsamples = 5\nvalue = [3, 2]\nclass = No"] ;
582 -> 583 ;
584 [label="Duration <= 10.5\ngini = 0.375\nsamples = 4\nvalue = [3, 1]\nclass = No"] ;
583 -> 584 ;
585 [label="gini = 0.0\nsamples = 1\nvalue = [0, 1]\nclass = Yes"] ;
584 -> 585 ;
586 [label="gini = 0.0\nsamples = 3\nvalue = [3, 0]\nclass = No"] ;
584 -> 586 ;
587 [label="gini = 0.0\nsamples = 1\nvalue = [0, 1]\nclass = Yes"] ;
583 -> 587 ;
588 [label="gini = 0.0\nsamples = 5\nvalue = [5, 0]\nclass = No"] ;
582 -> 588 ;
589 [label="gini = 0.0\nsamples = 17\nvalue = [17, 0]\nclass = No"] ;
579 -> 589 ;
590 [label="Sales <= 11.5\ngini = 0.305\nsamples = 16\nvalue = [13, 3]\nclass = No"] ;
492 -> 590 ;
591 [label="Sales <= 10.5\ngini = 0.5\nsamples = 4\nvalue = [2, 2]\nclass = No"] ;
590 -> 591 ;
592 [label="Duration <= 21.0\ngini = 0.444\nsamples = 3\nvalue = [2, 1]\nclass = No"] ;
591 -> 592 ;
593 [label="gini = 0.0\nsamples = 2\nvalue = [2, 0]\nclass = No"] ;
592 -> 593 ;
594 [label="gini = 0.0\nsamples = 1\nvalue = [0, 1]\nclass = Yes"] ;
592 -> 594 ;
595 [label="gini = 0.0\nsamples = 1\nvalue = [0, 1]\nclass = Yes"] ;
591 -> 595 ;
596 [label="Duration <= 8.0\ngini = 0.153\nsamples = 12\nvalue = [11, 1]\nclass = No"] ;
590 -> 596 ;
597 [label="Sales <= 34.5\ngini = 0.32\nsamples = 5\nvalue = [4, 1]\nclass = No"] ;
596 -> 597 ;
598 [label="gini = 0.0\nsamples = 4\nvalue = [4, 0]\nclass = No"] ;
597 -> 598 ;
599 [label="gini = 0.0\nsamples = 1\nvalue = [0, 1]\nclass = Yes"] ;
597 -> 599 ;
600 [label="gini = 0.0\nsamples = 7\nvalue = [7, 0]\nclass = No"] ;
596 -> 600 ;
601 [label="Duration <= 8.5\ngini = 0.298\nsamples = 22\nvalue = [18, 4]\nclass = No"] ;
491 -> 601 ;
602 [label="gini = 0.0\nsamples = 6\nvalue = [6, 0]\nclass = No"] ;
601 -> 602 ;
603 [label="Duration <= 9.5\ngini = 0.375\nsamples = 16\nvalue = [12, 4]\nclass = No"] ;
601 -> 603 ;
604 [label="gini = 0.444\nsamples = 3\nvalue = [1, 2]\nclass = Yes"] ;
603 -> 604 ;
605 [label="Duration <= 11.5\ngini = 0.26\nsamples = 13\nvalue = [11, 2]\nclass = No"] ;
603 -> 605 ;
606 [label="gini = 0.0\nsamples = 4\nvalue = [4, 0]\nclass = No"] ;
605 -> 606 ;
607 [label="Duration <= 17.0\ngini = 0.346\nsamples = 9\nvalue = [7, 2]\nclass = No"] ;
605 -> 607 ;
608 [label="Sales <= 28.0\ngini = 0.48\nsamples = 5\nvalue = [3, 2]\nclass = No"] ;
607 -> 608 ;
609 [label="Duration <= 13.0\ngini = 0.444\nsamples = 3\nvalue = [2, 1]\nclass = No"] ;
608 -> 609 ;
610 [label="gini = 0.0\nsamples = 1\nvalue = [1, 0]\nclass = No"] ;
609 -> 610 ;
611 [label="gini = 0.5\nsamples = 2\nvalue = [1, 1]\nclass = No"] ;
609 -> 611 ;
612 [label="Duration <= 13.0\ngini = 0.5\nsamples = 2\nvalue = [1, 1]\nclass = No"] ;
608 -> 612 ;
613 [label="gini = 0.0\nsamples = 1\nvalue = [0, 1]\nclass = Yes"] ;
612 -> 613 ;
614 [label="gini = 0.0\nsamples = 1\nvalue = [1, 0]\nclass = No"] ;
612 -> 614 ;
615 [label="gini = 0.0\nsamples = 4\nvalue = [4, 0]\nclass = No"] ;
607 -> 615 ;
616 [label="Sales <= 19.0\ngini = 0.291\nsamples = 34\nvalue = [28, 6]\nclass = No"] ;
490 -> 616 ;
617 [label="Sales <= 17.5\ngini = 0.473\nsamples = 13\nvalue = [8, 5]\nclass = No"] ;
616 -> 617 ;
618 [label="Duration <= 39.5\ngini = 0.444\nsamples = 12\nvalue = [8, 4]\nclass = No"] ;
617 -> 618 ;
619 [label="Sales <= 12.5\ngini = 0.5\nsamples = 8\nvalue = [4, 4]\nclass = No"] ;
618 -> 619 ;
620 [label="Sales <= 10.5\ngini = 0.49\nsamples = 7\nvalue = [4, 3]\nclass = No"] ;
619 -> 620 ;
621 [label="Duration <= 38.5\ngini = 0.48\nsamples = 5\nvalue = [2, 3]\nclass = Yes"] ;
620 -> 621 ;
622 [label="gini = 0.0\nsamples = 1\nvalue = [0, 1]\nclass = Yes"] ;
621 -> 622 ;
623 [label="gini = 0.5\nsamples = 4\nvalue = [2, 2]\nclass = No"] ;
621 -> 623 ;
624 [label="gini = 0.0\nsamples = 2\nvalue = [2, 0]\nclass = No"] ;
620 -> 624 ;
625 [label="gini = 0.0\nsamples = 1\nvalue = [0, 1]\nclass = Yes"] ;
619 -> 625 ;
626 [label="gini = 0.0\nsamples = 4\nvalue = [4, 0]\nclass = No"] ;
618 -> 626 ;
627 [label="gini = 0.0\nsamples = 1\nvalue = [0, 1]\nclass = Yes"] ;
617 -> 627 ;
628 [label="Sales <= 54.5\ngini = 0.091\nsamples = 21\nvalue = [20, 1]\nclass = No"] ;
616 -> 628 ;
629 [label="gini = 0.0\nsamples = 14\nvalue = [14, 0]\nclass = No"] ;
628 -> 629 ;
630 [label="Duration <= 41.0\ngini = 0.245\nsamples = 7\nvalue = [6, 1]\nclass = No"] ;
628 -> 630 ;
631 [label="Sales <= 66.5\ngini = 0.5\nsamples = 2\nvalue = [1, 1]\nclass = No"] ;
630 -> 631 ;
632 [label="gini = 0.0\nsamples = 1\nvalue = [0, 1]\nclass = Yes"] ;
631 -> 632 ;
633 [label="gini = 0.0\nsamples = 1\nvalue = [1, 0]\nclass = No"] ;
631 -> 633 ;
634 [label="gini = 0.0\nsamples = 5\nvalue = [5, 0]\nclass = No"] ;
630 -> 634 ;
635 [label="Destination <= 1.5\ngini = 0.056\nsamples = 139\nvalue = [135, 4]\nclass = No"] ;
489 -> 635 ;
636 [label="Commision <= 8.4\ngini = 0.031\nsamples = 125\nvalue = [123, 2]\nclass = No"] ;
635 -> 636 ;
637 [label="Sales <= 17.5\ngini = 0.018\nsamples = 110\nvalue = [109, 1]\nclass = No"] ;
636 -> 637 ;
638 [label="Sales <= 16.5\ngini = 0.039\nsamples = 50\nvalue = [49, 1]\nclass = No"] ;
637 -> 638 ;
639 [label="gini = 0.0\nsamples = 45\nvalue = [45, 0]\nclass = No"] ;
638 -> 639 ;
640 [label="Duration <= 75.5\ngini = 0.32\nsamples = 5\nvalue = [4, 1]\nclass = No"] ;
638 -> 640 ;
641 [label="Duration <= 59.5\ngini = 0.5\nsamples = 2\nvalue = [1, 1]\nclass = No"] ;
640 -> 641 ;
642 [label="gini = 0.0\nsamples = 1\nvalue = [1, 0]\nclass = No"] ;
641 -> 642 ;
643 [label="gini = 0.0\nsamples = 1\nvalue = [0, 1]\nclass = Yes"] ;
641 -> 643 ;
644 [label="gini = 0.0\nsamples = 3\nvalue = [3, 0]\nclass = No"] ;
640 -> 644 ;
645 [label="gini = 0.0\nsamples = 60\nvalue = [60, 0]\nclass = No"] ;
637 -> 645 ;
646 [label="Duration <= 55.5\ngini = 0.124\nsamples = 15\nvalue = [14, 1]\nclass = No"] ;
636 -> 646 ;
647 [label="Duration <= 54.5\ngini = 0.32\nsamples = 5\nvalue = [4, 1]\nclass = No"] ;
646 -> 647 ;
648 [label="gini = 0.0\nsamples = 4\nvalue = [4, 0]\nclass = No"] ;
647 -> 648 ;
649 [label="gini = 0.0\nsamples = 1\nvalue = [0, 1]\nclass = Yes"] ;
647 -> 649 ;
650 [label="gini = 0.0\nsamples = 10\nvalue = [10, 0]\nclass = No"] ;
646 -> 650 ;
651 [label="Duration <= 216.0\ngini = 0.245\nsamples = 14\nvalue = [12, 2]\nclass = No"] ;
635 -> 651 ;
652 [label="Duration <= 82.5\ngini = 0.153\nsamples = 12\nvalue = [11, 1]\nclass = No"] ;
651 -> 652 ;
653 [label="Duration <= 79.5\ngini = 0.32\nsamples = 5\nvalue = [4, 1]\nclass = No"] ;
652 -> 653 ;
654 [label="gini = 0.0\nsamples = 3\nvalue = [3, 0]\nclass = No"] ;
653 -> 654 ;
655 [label="Sales <= 68.5\ngini = 0.5\nsamples = 2\nvalue = [1, 1]\nclass = No"] ;
653 -> 655 ;
656 [label="gini = 0.0\nsamples = 1\nvalue = [0, 1]\nclass = Yes"] ;
655 -> 656 ;
657 [label="gini = 0.0\nsamples = 1\nvalue = [1, 0]\nclass = No"] ;
655 -> 657 ;
658 [label="gini = 0.0\nsamples = 7\nvalue = [7, 0]\nclass = No"] ;
652 -> 658 ;
659 [label="Sales <= 73.0\ngini = 0.5\nsamples = 2\nvalue = [1, 1]\nclass = No"] ;
651 -> 659 ;
660 [label="gini = 0.0\nsamples = 1\nvalue = [0, 1]\nclass = Yes"] ;
659 -> 660 ;
661 [label="gini = 0.0\nsamples = 1\nvalue = [1, 0]\nclass = No"] ;
659 -> 661 ;
662 [label="Duration <= 98.5\ngini = 0.364\nsamples = 67\nvalue = [51, 16]\nclass = No"] ;
488 -> 662 ;
663 [label="Duration <= 65.5\ngini = 0.408\nsamples = 56\nvalue = [40, 16]\nclass = No"] ;
662 -> 663 ;
664 [label="Commision <= 16.1\ngini = 0.353\nsamples = 48\nvalue = [37, 11]\nclass = No"] ;
663 -> 664 ;
665 [label="Duration <= 10.5\ngini = 0.431\nsamples = 35\nvalue = [24, 11]\nclass = No"] ;
664 -> 665 ;
666 [label="Destination <= 0.5\ngini = 0.5\nsamples = 6\nvalue = [3, 3]\nclass = No"] ;
665 -> 666 ;
667 [label="Duration <= 6.0\ngini = 0.48\nsamples = 5\nvalue = [3, 2]\nclass = No"] ;
666 -> 667 ;
668 [label="gini = 0.0\nsamples = 1\nvalue = [1, 0]\nclass = No"] ;
667 -> 668 ;
669 [label="Duration <= 7.5\ngini = 0.5\nsamples = 4\nvalue = [2, 2]\nclass = No"] ;
667 -> 669 ;
670 [label="gini = 0.0\nsamples = 1\nvalue = [0, 1]\nclass = Yes"] ;
669 -> 670 ;
671 [label="Commision <= 13.65\ngini = 0.444\nsamples = 3\nvalue = [2, 1]\nclass = No"] ;
669 -> 671 ;
672 [label="gini = 0.0\nsamples = 1\nvalue = [1, 0]\nclass = No"] ;
671 -> 672 ;
673 [label="Duration <= 8.5\ngini = 0.5\nsamples = 2\nvalue = [1, 1]\nclass = No"] ;
671 -> 673 ;
674 [label="gini = 0.0\nsamples = 1\nvalue = [0, 1]\nclass = Yes"] ;
673 -> 674 ;
675 [label="gini = 0.0\nsamples = 1\nvalue = [1, 0]\nclass = No"] ;
673 -> 675 ;
676 [label="gini = 0.0\nsamples = 1\nvalue = [0, 1]\nclass = Yes"] ;
666 -> 676 ;
677 [label="Commision <= 14.7\ngini = 0.4\nsamples = 29\nvalue = [21, 8]\nclass = No"] ;
665 -> 677 ;
678 [label="Sales <= 38.5\ngini = 0.435\nsamples = 25\nvalue = [17, 8]\nclass = No"] ;
677 -> 678 ;
679 [label="Sales <= 30.5\ngini = 0.375\nsamples = 20\nvalue = [15, 5]\nclass = No"] ;
678 -> 679 ;
680 [label="Duration <= 19.0\ngini = 0.49\nsamples = 7\nvalue = [4, 3]\nclass = No"] ;
679 -> 680 ;
681 [label="gini = 0.0\nsamples = 2\nvalue = [0, 2]\nclass = Yes"] ;
680 -> 681 ;
682 [label="Duration <= 24.5\ngini = 0.32\nsamples = 5\nvalue = [4, 1]\nclass = No"] ;
680 -> 682 ;
683 [label="gini = 0.0\nsamples = 2\nvalue = [2, 0]\nclass = No"] ;
682 -> 683 ;
684 [label="Duration <= 27.5\ngini = 0.444\nsamples = 3\nvalue = [2, 1]\nclass = No"] ;
682 -> 684 ;
685 [label="gini = 0.0\nsamples = 1\nvalue = [0, 1]\nclass = Yes"] ;
684 -> 685 ;
686 [label="gini = 0.0\nsamples = 2\nvalue = [2, 0]\nclass = No"] ;
684 -> 686 ;
687 [label="Duration <= 22.0\ngini = 0.26\nsamples = 13\nvalue = [11, 2]\nclass = No"] ;
679 -> 687 ;
688 [label="gini = 0.0\nsamples = 4\nvalue = [4, 0]\nclass = No"] ;
687 -> 688 ;
689 [label="Duration <= 25.5\ngini = 0.346\nsamples = 9\nvalue = [7, 2]\nclass = No"] ;
687 -> 689 ;
690 [label="gini = 0.0\nsamples = 1\nvalue = [0, 1]\nclass = Yes"] ;
689 -> 690 ;
691 [label="Duration <= 44.0\ngini = 0.219\nsamples = 8\nvalue = [7, 1]\nclass = No"] ;
689 -> 691 ;
692 [label="gini = 0.0\nsamples = 4\nvalue = [4, 0]\nclass = No"] ;
691 -> 692 ;
693 [label="Duration <= 47.0\ngini = 0.375\nsamples = 4\nvalue = [3, 1]\nclass = No"] ;
691 -> 693 ;
694 [label="gini = 0.0\nsamples = 1\nvalue = [0, 1]\nclass = Yes"] ;
693 -> 694 ;
695 [label="gini = 0.0\nsamples = 3\nvalue = [3, 0]\nclass = No"] ;
693 -> 695 ;
696 [label="Duration <= 26.5\ngini = 0.48\nsamples = 5\nvalue = [2, 3]\nclass = Yes"] ;
678 -> 696 ;
697 [label="gini = 0.0\nsamples = 2\nvalue = [2, 0]\nclass = No"] ;
696 -> 697 ;
698 [label="gini = 0.0\nsamples = 3\nvalue = [0, 3]\nclass = Yes"] ;
696 -> 698 ;
699 [label="gini = 0.0\nsamples = 4\nvalue = [4, 0]\nclass = No"] ;
677 -> 699 ;
700 [label="gini = 0.0\nsamples = 13\nvalue = [13, 0]\nclass = No"] ;
664 -> 700 ;
701 [label="Commision <= 23.45\ngini = 0.469\nsamples = 8\nvalue = [3, 5]\nclass = Yes"] ;
663 -> 701 ;
702 [label="Destination <= 0.5\ngini = 0.408\nsamples = 7\nvalue = [2, 5]\nclass = Yes"] ;
701 -> 702 ;
703 [label="Agency_Code <= 2.0\ngini = 0.48\nsamples = 5\nvalue = [2, 3]\nclass = Yes"] ;
702 -> 703 ;
704 [label="gini = 0.0\nsamples = 1\nvalue = [0, 1]\nclass = Yes"] ;
703 -> 704 ;
705 [label="Sales <= 34.0\ngini = 0.5\nsamples = 4\nvalue = [2, 2]\nclass = No"] ;
703 -> 705 ;
706 [label="gini = 0.0\nsamples = 1\nvalue = [1, 0]\nclass = No"] ;
705 -> 706 ;
707 [label="Duration <= 72.0\ngini = 0.444\nsamples = 3\nvalue = [1, 2]\nclass = Yes"] ;
705 -> 707 ;
708 [label="gini = 0.0\nsamples = 1\nvalue = [0, 1]\nclass = Yes"] ;
707 -> 708 ;
709 [label="Duration <= 84.5\ngini = 0.5\nsamples = 2\nvalue = [1, 1]\nclass = No"] ;
707 -> 709 ;
710 [label="gini = 0.0\nsamples = 1\nvalue = [1, 0]\nclass = No"] ;
709 -> 710 ;
711 [label="gini = 0.0\nsamples = 1\nvalue = [0, 1]\nclass = Yes"] ;
709 -> 711 ;
712 [label="gini = 0.0\nsamples = 2\nvalue = [0, 2]\nclass = Yes"] ;
702 -> 712 ;
713 [label="gini = 0.0\nsamples = 1\nvalue = [1, 0]\nclass = No"] ;
701 -> 713 ;
714 [label="gini = 0.0\nsamples = 11\nvalue = [11, 0]\nclass = No"] ;
662 -> 714 ;
715 [label="Sales <= 32.5\ngini = 0.348\nsamples = 619\nvalue = [480, 139]\nclass = No"] ;
487 -> 715 ;
716 [label="Duration <= 42.5\ngini = 0.273\nsamples = 307\nvalue = [257, 50]\nclass = No"] ;
715 -> 716 ;
717 [label="Channel <= 0.5\ngini = 0.204\nsamples = 217\nvalue = [192, 25]\nclass = No"] ;
716 -> 717 ;
718 [label="Duration <= 19.5\ngini = 0.496\nsamples = 11\nvalue = [6, 5]\nclass = No"] ;
717 -> 718 ;
719 [label="Duration <= 5.0\ngini = 0.469\nsamples = 8\nvalue = [3, 5]\nclass = Yes"] ;
718 -> 719 ;
720 [label="gini = 0.0\nsamples = 2\nvalue = [0, 2]\nclass = Yes"] ;
719 -> 720 ;
721 [label="Duration <= 14.5\ngini = 0.5\nsamples = 6\nvalue = [3, 3]\nclass = No"] ;
719 -> 721 ;
722 [label="Sales <= 24.5\ngini = 0.375\nsamples = 4\nvalue = [3, 1]\nclass = No"] ;
721 -> 722 ;
723 [label="gini = 0.0\nsamples = 1\nvalue = [0, 1]\nclass = Yes"] ;
722 -> 723 ;
724 [label="gini = 0.0\nsamples = 3\nvalue = [3, 0]\nclass = No"] ;
722 -> 724 ;
725 [label="gini = 0.0\nsamples = 2\nvalue = [0, 2]\nclass = Yes"] ;
721 -> 725 ;
726 [label="gini = 0.0\nsamples = 3\nvalue = [3, 0]\nclass = No"] ;
718 -> 726 ;
727 [label="Sales <= 28.5\ngini = 0.175\nsamples = 206\nvalue = [186, 20]\nclass = No"] ;
717 -> 727 ;
728 [label="Duration <= 13.5\ngini = 0.133\nsamples = 153\nvalue = [142, 11]\nclass = No"] ;
727 -> 728 ;
729 [label="Destination <= 1.5\ngini = 0.061\nsamples = 64\nvalue = [62, 2]\nclass = No"] ;
728 -> 729 ;
730 [label="Duration <= 3.5\ngini = 0.032\nsamples = 61\nvalue = [60, 1]\nclass = No"] ;
729 -> 730 ;
731 [label="Duration <= 2.5\ngini = 0.124\nsamples = 15\nvalue = [14, 1]\nclass = No"] ;
730 -> 731 ;
732 [label="gini = 0.0\nsamples = 6\nvalue = [6, 0]\nclass = No"] ;
731 -> 732 ;
733 [label="Agency_Code <= 1.5\ngini = 0.198\nsamples = 9\nvalue = [8, 1]\nclass = No"] ;
731 -> 733 ;
734 [label="gini = 0.0\nsamples = 3\nvalue = [3, 0]\nclass = No"] ;
733 -> 734 ;
735 [label="Sales <= 21.0\ngini = 0.278\nsamples = 6\nvalue = [5, 1]\nclass = No"] ;
733 -> 735 ;
736 [label="gini = 0.375\nsamples = 4\nvalue = [3, 1]\nclass = No"] ;
735 -> 736 ;
737 [label="gini = 0.0\nsamples = 2\nvalue = [2, 0]\nclass = No"] ;
735 -> 737 ;
738 [label="gini = 0.0\nsamples = 46\nvalue = [46, 0]\nclass = No"] ;
730 -> 738 ;
739 [label="Sales <= 14.85\ngini = 0.444\nsamples = 3\nvalue = [2, 1]\nclass = No"] ;
729 -> 739 ;
740 [label="gini = 0.0\nsamples = 1\nvalue = [0, 1]\nclass = Yes"] ;
739 -> 740 ;
741 [label="gini = 0.0\nsamples = 2\nvalue = [2, 0]\nclass = No"] ;
739 -> 741 ;
742 [label="Sales <= 24.435\ngini = 0.182\nsamples = 89\nvalue = [80, 9]\nclass = No"] ;
728 -> 742 ;
743 [label="Duration <= 15.5\ngini = 0.221\nsamples = 71\nvalue = [62, 9]\nclass = No"] ;
742 -> 743 ;
744 [label="Sales <= 19.9\ngini = 0.42\nsamples = 10\nvalue = [7, 3]\nclass = No"] ;
743 -> 744 ;
745 [label="Duration <= 14.5\ngini = 0.5\nsamples = 2\nvalue = [1, 1]\nclass = No"] ;
744 -> 745 ;
746 [label="gini = 0.0\nsamples = 1\nvalue = [0, 1]\nclass = Yes"] ;
745 -> 746 ;
747 [label="gini = 0.0\nsamples = 1\nvalue = [1, 0]\nclass = No"] ;
745 -> 747 ;
748 [label="Duration <= 14.5\ngini = 0.375\nsamples = 8\nvalue = [6, 2]\nclass = No"] ;
744 -> 748 ;
749 [label="gini = 0.0\nsamples = 3\nvalue = [3, 0]\nclass = No"] ;
748 -> 749 ;
750 [label="Sales <= 20.5\ngini = 0.48\nsamples = 5\nvalue = [3, 2]\nclass = No"] ;
748 -> 750 ;
751 [label="gini = 0.375\nsamples = 4\nvalue = [3, 1]\nclass = No"] ;
750 -> 751 ;
752 [label="gini = 0.0\nsamples = 1\nvalue = [0, 1]\nclass = Yes"] ;
750 -> 752 ;
753 [label="Sales <= 20.5\ngini = 0.177\nsamples = 61\nvalue = [55, 6]\nclass = No"] ;
743 -> 753 ;
754 [label="Duration <= 32.0\ngini = 0.12\nsamples = 47\nvalue = [44, 3]\nclass = No"] ;
753 -> 754 ;
755 [label="gini = 0.0\nsamples = 32\nvalue = [32, 0]\nclass = No"] ;
754 -> 755 ;
756 [label="Duration <= 33.5\ngini = 0.32\nsamples = 15\nvalue = [12, 3]\nclass = No"] ;
754 -> 756 ;
757 [label="gini = 0.5\nsamples = 2\nvalue = [1, 1]\nclass = No"] ;
756 -> 757 ;
758 [label="Duration <= 39.5\ngini = 0.26\nsamples = 13\nvalue = [11, 2]\nclass = No"] ;
756 -> 758 ;
759 [label="Destination <= 0.5\ngini = 0.18\nsamples = 10\nvalue = [9, 1]\nclass = No"] ;
758 -> 759 ;
760 [label="gini = 0.0\nsamples = 6\nvalue = [6, 0]\nclass = No"] ;
759 -> 760 ;
761 [label="Destination <= 1.5\ngini = 0.375\nsamples = 4\nvalue = [3, 1]\nclass = No"] ;
759 -> 761 ;
762 [label="Commision <= 26.73\ngini = 0.5\nsamples = 2\nvalue = [1, 1]\nclass = No"] ;
761 -> 762 ;
763 [label="gini = 0.0\nsamples = 1\nvalue = [0, 1]\nclass = Yes"] ;
762 -> 763 ;
764 [label="gini = 0.0\nsamples = 1\nvalue = [1, 0]\nclass = No"] ;
762 -> 764 ;
765 [label="gini = 0.0\nsamples = 2\nvalue = [2, 0]\nclass = No"] ;
761 -> 765 ;
766 [label="Duration <= 40.5\ngini = 0.444\nsamples = 3\nvalue = [2, 1]\nclass = No"] ;
758 -> 766 ;
767 [label="gini = 0.0\nsamples = 1\nvalue = [0, 1]\nclass = Yes"] ;
766 -> 767 ;
768 [label="gini = 0.0\nsamples = 2\nvalue = [2, 0]\nclass = No"] ;
766 -> 768 ;
769 [label="Duration <= 28.5\ngini = 0.337\nsamples = 14\nvalue = [11, 3]\nclass = No"] ;
753 -> 769 ;
770 [label="Sales <= 21.5\ngini = 0.469\nsamples = 8\nvalue = [5, 3]\nclass = No"] ;
769 -> 770 ;
771 [label="gini = 0.0\nsamples = 2\nvalue = [0, 2]\nclass = Yes"] ;
770 -> 771 ;
772 [label="Duration <= 27.0\ngini = 0.278\nsamples = 6\nvalue = [5, 1]\nclass = No"] ;
770 -> 772 ;
773 [label="gini = 0.0\nsamples = 4\nvalue = [4, 0]\nclass = No"] ;
772 -> 773 ;
774 [label="Sales <= 23.5\ngini = 0.5\nsamples = 2\nvalue = [1, 1]\nclass = No"] ;
772 -> 774 ;
775 [label="gini = 0.0\nsamples = 1\nvalue = [1, 0]\nclass = No"] ;
774 -> 775 ;
776 [label="gini = 0.0\nsamples = 1\nvalue = [0, 1]\nclass = Yes"] ;
774 -> 776 ;
777 [label="gini = 0.0\nsamples = 6\nvalue = [6, 0]\nclass = No"] ;
769 -> 777 ;
778 [label="gini = 0.0\nsamples = 18\nvalue = [18, 0]\nclass = No"] ;
742 -> 778 ;
779 [label="Duration <= 17.5\ngini = 0.282\nsamples = 53\nvalue = [44, 9]\nclass = No"] ;
727 -> 779 ;
780 [label="Duration <= 7.5\ngini = 0.408\nsamples = 28\nvalue = [20, 8]\nclass = No"] ;
779 -> 780 ;
781 [label="Duration <= 3.5\ngini = 0.198\nsamples = 9\nvalue = [8, 1]\nclass = No"] ;
780 -> 781 ;
782 [label="Agency_Code <= 1.5\ngini = 0.444\nsamples = 3\nvalue = [2, 1]\nclass = No"] ;
781 -> 782 ;
783 [label="gini = 0.5\nsamples = 2\nvalue = [1, 1]\nclass = No"] ;
782 -> 783 ;
784 [label="gini = 0.0\nsamples = 1\nvalue = [1, 0]\nclass = No"] ;
782 -> 784 ;
785 [label="gini = 0.0\nsamples = 6\nvalue = [6, 0]\nclass = No"] ;
781 -> 785 ;
786 [label="Duration <= 8.5\ngini = 0.465\nsamples = 19\nvalue = [12, 7]\nclass = No"] ;
780 -> 786 ;
787 [label="gini = 0.0\nsamples = 2\nvalue = [0, 2]\nclass = Yes"] ;
786 -> 787 ;
788 [label="Duration <= 11.0\ngini = 0.415\nsamples = 17\nvalue = [12, 5]\nclass = No"] ;
786 -> 788 ;
789 [label="gini = 0.0\nsamples = 4\nvalue = [4, 0]\nclass = No"] ;
788 -> 789 ;
790 [label="Commision <= 8.91\ngini = 0.473\nsamples = 13\nvalue = [8, 5]\nclass = No"] ;
788 -> 790 ;
791 [label="Duration <= 14.5\ngini = 0.375\nsamples = 8\nvalue = [6, 2]\nclass = No"] ;
790 -> 791 ;
792 [label="Sales <= 30.5\ngini = 0.5\nsamples = 4\nvalue = [2, 2]\nclass = No"] ;
791 -> 792 ;
793 [label="gini = 0.0\nsamples = 2\nvalue = [0, 2]\nclass = Yes"] ;
792 -> 793 ;
794 [label="gini = 0.0\nsamples = 2\nvalue = [2, 0]\nclass = No"] ;
792 -> 794 ;
795 [label="gini = 0.0\nsamples = 4\nvalue = [4, 0]\nclass = No"] ;
791 -> 795 ;
796 [label="Destination <= 0.5\ngini = 0.48\nsamples = 5\nvalue = [2, 3]\nclass = Yes"] ;
790 -> 796 ;
797 [label="gini = 0.0\nsamples = 3\nvalue = [0, 3]\nclass = Yes"] ;
796 -> 797 ;
798 [label="gini = 0.0\nsamples = 2\nvalue = [2, 0]\nclass = No"] ;
796 -> 798 ;
799 [label="Sales <= 29.35\ngini = 0.077\nsamples = 25\nvalue = [24, 1]\nclass = No"] ;
779 -> 799 ;
800 [label="Duration <= 30.5\ngini = 0.32\nsamples = 5\nvalue = [4, 1]\nclass = No"] ;
799 -> 800 ;
801 [label="gini = 0.0\nsamples = 2\nvalue = [2, 0]\nclass = No"] ;
800 -> 801 ;
802 [label="Duration <= 31.5\ngini = 0.444\nsamples = 3\nvalue = [2, 1]\nclass = No"] ;
800 -> 802 ;
803 [label="gini = 0.0\nsamples = 1\nvalue = [0, 1]\nclass = Yes"] ;
802 -> 803 ;
804 [label="gini = 0.0\nsamples = 2\nvalue = [2, 0]\nclass = No"] ;
802 -> 804 ;
805 [label="gini = 0.0\nsamples = 20\nvalue = [20, 0]\nclass = No"] ;
799 -> 805 ;
806 [label="Sales <= 19.835\ngini = 0.401\nsamples = 90\nvalue = [65, 25]\nclass = No"] ;
716 -> 806 ;
807 [label="gini = 0.0\nsamples = 10\nvalue = [10, 0]\nclass = No"] ;
806 -> 807 ;
808 [label="Destination <= 1.5\ngini = 0.43\nsamples = 80\nvalue = [55, 25]\nclass = No"] ;
806 -> 808 ;
809 [label="Sales <= 26.5\ngini = 0.403\nsamples = 75\nvalue = [54, 21]\nclass = No"] ;
808 -> 809 ;
810 [label="Sales <= 25.5\ngini = 0.465\nsamples = 49\nvalue = [31, 18]\nclass = No"] ;
809 -> 810 ;
811 [label="Duration <= 112.0\ngini = 0.44\nsamples = 46\nvalue = [31, 15]\nclass = No"] ;
810 -> 811 ;
812 [label="Duration <= 106.0\ngini = 0.475\nsamples = 36\nvalue = [22, 14]\nclass = No"] ;
811 -> 812 ;
813 [label="Sales <= 19.935\ngini = 0.457\nsamples = 34\nvalue = [22, 12]\nclass = No"] ;
812 -> 813 ;
814 [label="gini = 0.0\nsamples = 1\nvalue = [0, 1]\nclass = Yes"] ;
813 -> 814 ;
815 [label="Duration <= 95.5\ngini = 0.444\nsamples = 33\nvalue = [22, 11]\nclass = No"] ;
813 -> 815 ;
816 [label="Duration <= 94.0\ngini = 0.471\nsamples = 29\nvalue = [18, 11]\nclass = No"] ;
815 -> 816 ;
817 [label="Duration <= 68.0\ngini = 0.444\nsamples = 27\nvalue = [18, 9]\nclass = No"] ;
816 -> 817 ;
818 [label="Sales <= 24.5\ngini = 0.488\nsamples = 19\nvalue = [11, 8]\nclass = No"] ;
817 -> 818 ;
819 [label="Sales <= 22.5\ngini = 0.498\nsamples = 17\nvalue = [9, 8]\nclass = No"] ;
818 -> 819 ;
820 [label="Duration <= 48.0\ngini = 0.48\nsamples = 15\nvalue = [9, 6]\nclass = No"] ;
819 -> 820 ;
821 [label="Duration <= 45.0\ngini = 0.375\nsamples = 4\nvalue = [1, 3]\nclass = Yes"] ;
820 -> 821 ;
822 [label="gini = 0.5\nsamples = 2\nvalue = [1, 1]\nclass = No"] ;
821 -> 822 ;
823 [label="gini = 0.0\nsamples = 2\nvalue = [0, 2]\nclass = Yes"] ;
821 -> 823 ;
824 [label="Duration <= 66.5\ngini = 0.397\nsamples = 11\nvalue = [8, 3]\nclass = No"] ;
820 -> 824 ;
825 [label="Duration <= 56.5\ngini = 0.32\nsamples = 10\nvalue = [8, 2]\nclass = No"] ;
824 -> 825 ;
826 [label="Duration <= 55.5\ngini = 0.444\nsamples = 6\nvalue = [4, 2]\nclass = No"] ;
825 -> 826 ;
827 [label="Duration <= 50.5\ngini = 0.32\nsamples = 5\nvalue = [4, 1]\nclass = No"] ;
826 -> 827 ;
828 [label="gini = 0.0\nsamples = 2\nvalue = [2, 0]\nclass = No"] ;
827 -> 828 ;
829 [label="Duration <= 51.5\ngini = 0.444\nsamples = 3\nvalue = [2, 1]\nclass = No"] ;
827 -> 829 ;
830 [label="gini = 0.0\nsamples = 1\nvalue = [0, 1]\nclass = Yes"] ;
829 -> 830 ;
831 [label="gini = 0.0\nsamples = 2\nvalue = [2, 0]\nclass = No"] ;
829 -> 831 ;
832 [label="gini = 0.0\nsamples = 1\nvalue = [0, 1]\nclass = Yes"] ;
826 -> 832 ;
833 [label="gini = 0.0\nsamples = 4\nvalue = [4, 0]\nclass = No"] ;
825 -> 833 ;
834 [label="gini = 0.0\nsamples = 1\nvalue = [0, 1]\nclass = Yes"] ;
824 -> 834 ;
835 [label="gini = 0.0\nsamples = 2\nvalue = [0, 2]\nclass = Yes"] ;
819 -> 835 ;
836 [label="gini = 0.0\nsamples = 2\nvalue = [2, 0]\nclass = No"] ;
818 -> 836 ;
837 [label="Duration <= 92.5\ngini = 0.219\nsamples = 8\nvalue = [7, 1]\nclass = No"] ;
817 -> 837 ;
838 [label="gini = 0.0\nsamples = 6\nvalue = [6, 0]\nclass = No"] ;
837 -> 838 ;
839 [label="gini = 0.5\nsamples = 2\nvalue = [1, 1]\nclass = No"] ;
837 -> 839 ;
840 [label="gini = 0.0\nsamples = 2\nvalue = [0, 2]\nclass = Yes"] ;
816 -> 840 ;
841 [label="gini = 0.0\nsamples = 4\nvalue = [4, 0]\nclass = No"] ;
815 -> 841 ;
842 [label="gini = 0.0\nsamples = 2\nvalue = [0, 2]\nclass = Yes"] ;
812 -> 842 ;
843 [label="Duration <= 387.0\ngini = 0.18\nsamples = 10\nvalue = [9, 1]\nclass = No"] ;
811 -> 843 ;
844 [label="gini = 0.0\nsamples = 8\nvalue = [8, 0]\nclass = No"] ;
843 -> 844 ;
845 [label="gini = 0.5\nsamples = 2\nvalue = [1, 1]\nclass = No"] ;
843 -> 845 ;
846 [label="gini = 0.0\nsamples = 3\nvalue = [0, 3]\nclass = Yes"] ;
810 -> 846 ;
847 [label="Destination <= 0.5\ngini = 0.204\nsamples = 26\nvalue = [23, 3]\nclass = No"] ;
809 -> 847 ;
848 [label="Duration <= 97.0\ngini = 0.153\nsamples = 24\nvalue = [22, 2]\nclass = No"] ;
847 -> 848 ;
849 [label="gini = 0.0\nsamples = 16\nvalue = [16, 0]\nclass = No"] ;
848 -> 849 ;
850 [label="Sales <= 29.35\ngini = 0.375\nsamples = 8\nvalue = [6, 2]\nclass = No"] ;
848 -> 850 ;
851 [label="Duration <= 102.5\ngini = 0.444\nsamples = 6\nvalue = [4, 2]\nclass = No"] ;
850 -> 851 ;
852 [label="gini = 0.0\nsamples = 1\nvalue = [0, 1]\nclass = Yes"] ;
851 -> 852 ;
853 [label="Sales <= 28.5\ngini = 0.32\nsamples = 5\nvalue = [4, 1]\nclass = No"] ;
851 -> 853 ;
854 [label="Duration <= 163.0\ngini = 0.444\nsamples = 3\nvalue = [2, 1]\nclass = No"] ;
853 -> 854 ;
855 [label="gini = 0.0\nsamples = 1\nvalue = [1, 0]\nclass = No"] ;
854 -> 855 ;
856 [label="Duration <= 308.0\ngini = 0.5\nsamples = 2\nvalue = [1, 1]\nclass = No"] ;
854 -> 856 ;
857 [label="gini = 0.0\nsamples = 1\nvalue = [0, 1]\nclass = Yes"] ;
856 -> 857 ;
858 [label="gini = 0.0\nsamples = 1\nvalue = [1, 0]\nclass = No"] ;
856 -> 858 ;
859 [label="gini = 0.0\nsamples = 2\nvalue = [2, 0]\nclass = No"] ;
853 -> 859 ;
860 [label="gini = 0.0\nsamples = 2\nvalue = [2, 0]\nclass = No"] ;
850 -> 860 ;
861 [label="Sales <= 30.85\ngini = 0.5\nsamples = 2\nvalue = [1, 1]\nclass = No"] ;
847 -> 861 ;
862 [label="gini = 0.0\nsamples = 1\nvalue = [0, 1]\nclass = Yes"] ;
861 -> 862 ;
863 [label="gini = 0.0\nsamples = 1\nvalue = [1, 0]\nclass = No"] ;
861 -> 863 ;
864 [label="Duration <= 126.0\ngini = 0.32\nsamples = 5\nvalue = [1, 4]\nclass = Yes"] ;
808 -> 864 ;
865 [label="gini = 0.0\nsamples = 3\nvalue = [0, 3]\nclass = Yes"] ;
864 -> 865 ;
866 [label="Duration <= 180.5\ngini = 0.5\nsamples = 2\nvalue = [1, 1]\nclass = No"] ;
864 -> 866 ;
867 [label="gini = 0.0\nsamples = 1\nvalue = [1, 0]\nclass = No"] ;
866 -> 867 ;
868 [label="gini = 0.0\nsamples = 1\nvalue = [0, 1]\nclass = Yes"] ;
866 -> 868 ;
869 [label="Channel <= 0.5\ngini = 0.408\nsamples = 312\nvalue = [223, 89]\nclass = No"] ;
715 -> 869 ;
870 [label="Product Name <= 2.5\ngini = 0.375\nsamples = 4\nvalue = [1, 3]\nclass = Yes"] ;
869 -> 870 ;
871 [label="gini = 0.0\nsamples = 3\nvalue = [0, 3]\nclass = Yes"] ;
870 -> 871 ;
872 [label="gini = 0.0\nsamples = 1\nvalue = [1, 0]\nclass = No"] ;
870 -> 872 ;
873 [label="Product Name <= 2.5\ngini = 0.403\nsamples = 308\nvalue = [222, 86]\nclass = No"] ;
869 -> 873 ;
874 [label="Duration <= 34.5\ngini = 0.391\nsamples = 296\nvalue = [217, 79]\nclass = No"] ;
873 -> 874 ;
875 [label="Destination <= 1.5\ngini = 0.334\nsamples = 179\nvalue = [141, 38]\nclass = No"] ;
874 -> 875 ;
876 [label="Duration <= 29.5\ngini = 0.36\nsamples = 157\nvalue = [120, 37]\nclass = No"] ;
875 -> 876 ;
877 [label="Duration <= 17.5\ngini = 0.378\nsamples = 142\nvalue = [106, 36]\nclass = No"] ;
876 -> 877 ;
878 [label="Duration <= 10.5\ngini = 0.317\nsamples = 91\nvalue = [73, 18]\nclass = No"] ;
877 -> 878 ;
879 [label="Duration <= 9.5\ngini = 0.393\nsamples = 52\nvalue = [38, 14]\nclass = No"] ;
878 -> 879 ;
880 [label="Duration <= 4.5\ngini = 0.359\nsamples = 47\nvalue = [36, 11]\nclass = No"] ;
879 -> 880 ;
881 [label="gini = 0.0\nsamples = 7\nvalue = [7, 0]\nclass = No"] ;
880 -> 881 ;
882 [label="Duration <= 7.5\ngini = 0.399\nsamples = 40\nvalue = [29, 11]\nclass = No"] ;
880 -> 882 ;
883 [label="Commision <= 26.73\ngini = 0.444\nsamples = 21\nvalue = [14, 7]\nclass = No"] ;
882 -> 883 ;
884 [label="Sales <= 44.5\ngini = 0.475\nsamples = 18\nvalue = [11, 7]\nclass = No"] ;
883 -> 884 ;
885 [label="Sales <= 40.8\ngini = 0.397\nsamples = 11\nvalue = [8, 3]\nclass = No"] ;
884 -> 885 ;
886 [label="Sales <= 37.0\ngini = 0.469\nsamples = 8\nvalue = [5, 3]\nclass = No"] ;
885 -> 886 ;
887 [label="gini = 0.0\nsamples = 2\nvalue = [2, 0]\nclass = No"] ;
886 -> 887 ;
888 [label="Duration <= 5.5\ngini = 0.5\nsamples = 6\nvalue = [3, 3]\nclass = No"] ;
886 -> 888 ;
889 [label="gini = 0.0\nsamples = 1\nvalue = [1, 0]\nclass = No"] ;
888 -> 889 ;
890 [label="Agency_Code <= 1.5\ngini = 0.48\nsamples = 5\nvalue = [2, 3]\nclass = Yes"] ;
888 -> 890 ;
891 [label="Duration <= 6.5\ngini = 0.5\nsamples = 4\nvalue = [2, 2]\nclass = No"] ;
890 -> 891 ;
892 [label="gini = 0.5\nsamples = 2\nvalue = [1, 1]\nclass = No"] ;
891 -> 892 ;
893 [label="gini = 0.5\nsamples = 2\nvalue = [1, 1]\nclass = No"] ;
891 -> 893 ;
894 [label="gini = 0.0\nsamples = 1\nvalue = [0, 1]\nclass = Yes"] ;
890 -> 894 ;
895 [label="gini = 0.0\nsamples = 3\nvalue = [3, 0]\nclass = No"] ;
885 -> 895 ;
896 [label="Sales <= 51.0\ngini = 0.49\nsamples = 7\nvalue = [3, 4]\nclass = Yes"] ;
884 -> 896 ;
897 [label="gini = 0.0\nsamples = 2\nvalue = [0, 2]\nclass = Yes"] ;
896 -> 897 ;
898 [label="Duration <= 6.5\ngini = 0.48\nsamples = 5\nvalue = [3, 2]\nclass = No"] ;
896 -> 898 ;
899 [label="Sales <= 69.5\ngini = 0.375\nsamples = 4\nvalue = [3, 1]\nclass = No"] ;
898 -> 899 ;
900 [label="gini = 0.0\nsamples = 2\nvalue = [2, 0]\nclass = No"] ;
899 -> 900 ;
901 [label="Sales <= 76.5\ngini = 0.5\nsamples = 2\nvalue = [1, 1]\nclass = No"] ;
899 -> 901 ;
902 [label="gini = 0.0\nsamples = 1\nvalue = [0, 1]\nclass = Yes"] ;
901 -> 902 ;
903 [label="gini = 0.0\nsamples = 1\nvalue = [1, 0]\nclass = No"] ;
901 -> 903 ;
904 [label="gini = 0.0\nsamples = 1\nvalue = [0, 1]\nclass = Yes"] ;
898 -> 904 ;
905 [label="gini = 0.0\nsamples = 3\nvalue = [3, 0]\nclass = No"] ;
883 -> 905 ;
906 [label="Commision <= 26.73\ngini = 0.332\nsamples = 19\nvalue = [15, 4]\nclass = No"] ;
882 -> 906 ;
907 [label="Sales <= 35.5\ngini = 0.245\nsamples = 14\nvalue = [12, 2]\nclass = No"] ;
906 -> 907 ;
908 [label="gini = 0.5\nsamples = 2\nvalue = [1, 1]\nclass = No"] ;
907 -> 908 ;
909 [label="Commision <= 11.88\ngini = 0.153\nsamples = 12\nvalue = [11, 1]\nclass = No"] ;
907 -> 909 ;
910 [label="gini = 0.0\nsamples = 7\nvalue = [7, 0]\nclass = No"] ;
909 -> 910 ;
911 [label="Destination <= 0.5\ngini = 0.32\nsamples = 5\nvalue = [4, 1]\nclass = No"] ;
909 -> 911 ;
912 [label="gini = 0.444\nsamples = 3\nvalue = [2, 1]\nclass = No"] ;
911 -> 912 ;
913 [label="gini = 0.0\nsamples = 2\nvalue = [2, 0]\nclass = No"] ;
911 -> 913 ;
914 [label="Sales <= 56.75\ngini = 0.48\nsamples = 5\nvalue = [3, 2]\nclass = No"] ;
906 -> 914 ;
915 [label="gini = 0.0\nsamples = 1\nvalue = [0, 1]\nclass = Yes"] ;
914 -> 915 ;
916 [label="Sales <= 66.65\ngini = 0.375\nsamples = 4\nvalue = [3, 1]\nclass = No"] ;
914 -> 916 ;
917 [label="gini = 0.0\nsamples = 1\nvalue = [1, 0]\nclass = No"] ;
916 -> 917 ;
918 [label="Duration <= 8.5\ngini = 0.444\nsamples = 3\nvalue = [2, 1]\nclass = No"] ;
916 -> 918 ;
919 [label="gini = 0.0\nsamples = 1\nvalue = [1, 0]\nclass = No"] ;
918 -> 919 ;
920 [label="gini = 0.5\nsamples = 2\nvalue = [1, 1]\nclass = No"] ;
918 -> 920 ;
921 [label="Commision <= 26.73\ngini = 0.48\nsamples = 5\nvalue = [2, 3]\nclass = Yes"] ;
879 -> 921 ;
922 [label="Agency_Code <= 1.5\ngini = 0.444\nsamples = 3\nvalue = [2, 1]\nclass = No"] ;
921 -> 922 ;
923 [label="gini = 0.5\nsamples = 2\nvalue = [1, 1]\nclass = No"] ;
922 -> 923 ;
924 [label="gini = 0.0\nsamples = 1\nvalue = [1, 0]\nclass = No"] ;
922 -> 924 ;
925 [label="gini = 0.0\nsamples = 2\nvalue = [0, 2]\nclass = Yes"] ;
921 -> 925 ;
926 [label="Sales <= 39.8\ngini = 0.184\nsamples = 39\nvalue = [35, 4]\nclass = No"] ;
878 -> 926 ;
927 [label="gini = 0.0\nsamples = 17\nvalue = [17, 0]\nclass = No"] ;
926 -> 927 ;
928 [label="Duration <= 11.5\ngini = 0.298\nsamples = 22\nvalue = [18, 4]\nclass = No"] ;
926 -> 928 ;
929 [label="gini = 0.0\nsamples = 6\nvalue = [6, 0]\nclass = No"] ;
928 -> 929 ;
930 [label="Commision <= 38.61\ngini = 0.375\nsamples = 16\nvalue = [12, 4]\nclass = No"] ;
928 -> 930 ;
931 [label="Sales <= 49.25\ngini = 0.32\nsamples = 15\nvalue = [12, 3]\nclass = No"] ;
930 -> 931 ;
932 [label="Duration <= 13.5\ngini = 0.42\nsamples = 10\nvalue = [7, 3]\nclass = No"] ;
931 -> 932 ;
933 [label="Sales <= 44.5\ngini = 0.444\nsamples = 3\nvalue = [1, 2]\nclass = Yes"] ;
932 -> 933 ;
934 [label="gini = 0.0\nsamples = 1\nvalue = [0, 1]\nclass = Yes"] ;
933 -> 934 ;
935 [label="Duration <= 12.5\ngini = 0.5\nsamples = 2\nvalue = [1, 1]\nclass = No"] ;
933 -> 935 ;
936 [label="gini = 0.0\nsamples = 1\nvalue = [1, 0]\nclass = No"] ;
935 -> 936 ;
937 [label="gini = 0.0\nsamples = 1\nvalue = [0, 1]\nclass = Yes"] ;
935 -> 937 ;
938 [label="Sales <= 43.0\ngini = 0.245\nsamples = 7\nvalue = [6, 1]\nclass = No"] ;
932 -> 938 ;
939 [label="gini = 0.0\nsamples = 5\nvalue = [5, 0]\nclass = No"] ;
938 -> 939 ;
940 [label="Sales <= 45.0\ngini = 0.5\nsamples = 2\nvalue = [1, 1]\nclass = No"] ;
938 -> 940 ;
941 [label="gini = 0.0\nsamples = 1\nvalue = [0, 1]\nclass = Yes"] ;
940 -> 941 ;
942 [label="gini = 0.0\nsamples = 1\nvalue = [1, 0]\nclass = No"] ;
940 -> 942 ;
943 [label="gini = 0.0\nsamples = 5\nvalue = [5, 0]\nclass = No"] ;
931 -> 943 ;
944 [label="gini = 0.0\nsamples = 1\nvalue = [0, 1]\nclass = Yes"] ;
930 -> 944 ;
945 [label="Agency_Code <= 1.5\ngini = 0.457\nsamples = 51\nvalue = [33, 18]\nclass = No"] ;
877 -> 945 ;
946 [label="Duration <= 23.5\ngini = 0.375\nsamples = 24\nvalue = [18, 6]\nclass = No"] ;
945 -> 946 ;
947 [label="Duration <= 21.5\ngini = 0.305\nsamples = 16\nvalue = [13, 3]\nclass = No"] ;
946 -> 947 ;
948 [label="Duration <= 20.5\ngini = 0.397\nsamples = 11\nvalue = [8, 3]\nclass = No"] ;
947 -> 948 ;
949 [label="Sales <= 44.55\ngini = 0.245\nsamples = 7\nvalue = [6, 1]\nclass = No"] ;
948 -> 949 ;
950 [label="Destination <= 0.5\ngini = 0.5\nsamples = 2\nvalue = [1, 1]\nclass = No"] ;
949 -> 950 ;
951 [label="gini = 0.0\nsamples = 1\nvalue = [0, 1]\nclass = Yes"] ;
950 -> 951 ;
952 [label="gini = 0.0\nsamples = 1\nvalue = [1, 0]\nclass = No"] ;
950 -> 952 ;
953 [label="gini = 0.0\nsamples = 5\nvalue = [5, 0]\nclass = No"] ;
949 -> 953 ;
954 [label="Sales <= 44.55\ngini = 0.5\nsamples = 4\nvalue = [2, 2]\nclass = No"] ;
948 -> 954 ;
955 [label="gini = 0.0\nsamples = 1\nvalue = [1, 0]\nclass = No"] ;
954 -> 955 ;
956 [label="Commision <= 41.58\ngini = 0.444\nsamples = 3\nvalue = [1, 2]\nclass = Yes"] ;
954 -> 956 ;
957 [label="gini = 0.0\nsamples = 2\nvalue = [0, 2]\nclass = Yes"] ;
956 -> 957 ;
958 [label="gini = 0.0\nsamples = 1\nvalue = [1, 0]\nclass = No"] ;
956 -> 958 ;
959 [label="gini = 0.0\nsamples = 5\nvalue = [5, 0]\nclass = No"] ;
947 -> 959 ;
960 [label="Duration <= 25.0\ngini = 0.469\nsamples = 8\nvalue = [5, 3]\nclass = No"] ;
946 -> 960 ;
961 [label="gini = 0.0\nsamples = 2\nvalue = [0, 2]\nclass = Yes"] ;
960 -> 961 ;
962 [label="Commision <= 44.55\ngini = 0.278\nsamples = 6\nvalue = [5, 1]\nclass = No"] ;
960 -> 962 ;
963 [label="gini = 0.0\nsamples = 4\nvalue = [4, 0]\nclass = No"] ;
962 -> 963 ;
964 [label="Duration <= 27.0\ngini = 0.5\nsamples = 2\nvalue = [1, 1]\nclass = No"] ;
962 -> 964 ;
965 [label="gini = 0.0\nsamples = 1\nvalue = [1, 0]\nclass = No"] ;
964 -> 965 ;
966 [label="gini = 0.0\nsamples = 1\nvalue = [0, 1]\nclass = Yes"] ;
964 -> 966 ;
967 [label="Duration <= 18.5\ngini = 0.494\nsamples = 27\nvalue = [15, 12]\nclass = No"] ;
945 -> 967 ;
968 [label="gini = 0.0\nsamples = 2\nvalue = [0, 2]\nclass = Yes"] ;
967 -> 968 ;
969 [label="Duration <= 19.5\ngini = 0.48\nsamples = 25\nvalue = [15, 10]\nclass = No"] ;
967 -> 969 ;
970 [label="gini = 0.0\nsamples = 3\nvalue = [3, 0]\nclass = No"] ;
969 -> 970 ;
971 [label="Duration <= 20.5\ngini = 0.496\nsamples = 22\nvalue = [12, 10]\nclass = No"] ;
969 -> 971 ;
972 [label="gini = 0.0\nsamples = 3\nvalue = [0, 3]\nclass = Yes"] ;
971 -> 972 ;
973 [label="Duration <= 24.5\ngini = 0.465\nsamples = 19\nvalue = [12, 7]\nclass = No"] ;
971 -> 973 ;
974 [label="gini = 0.0\nsamples = 5\nvalue = [5, 0]\nclass = No"] ;
973 -> 974 ;
975 [label="Duration <= 27.5\ngini = 0.5\nsamples = 14\nvalue = [7, 7]\nclass = No"] ;
973 -> 975 ;
976 [label="Destination <= 0.5\ngini = 0.375\nsamples = 8\nvalue = [2, 6]\nclass = Yes"] ;
975 -> 976 ;
977 [label="Sales <= 56.5\ngini = 0.245\nsamples = 7\nvalue = [1, 6]\nclass = Yes"] ;
976 -> 977 ;
978 [label="gini = 0.0\nsamples = 5\nvalue = [0, 5]\nclass = Yes"] ;
977 -> 978 ;
979 [label="Sales <= 69.0\ngini = 0.5\nsamples = 2\nvalue = [1, 1]\nclass = No"] ;
977 -> 979 ;
980 [label="gini = 0.0\nsamples = 1\nvalue = [1, 0]\nclass = No"] ;
979 -> 980 ;
981 [label="gini = 0.0\nsamples = 1\nvalue = [0, 1]\nclass = Yes"] ;
979 -> 981 ;
982 [label="gini = 0.0\nsamples = 1\nvalue = [1, 0]\nclass = No"] ;
976 -> 982 ;
983 [label="Sales <= 37.0\ngini = 0.278\nsamples = 6\nvalue = [5, 1]\nclass = No"] ;
975 -> 983 ;
984 [label="Sales <= 34.0\ngini = 0.5\nsamples = 2\nvalue = [1, 1]\nclass = No"] ;
983 -> 984 ;
985 [label="gini = 0.0\nsamples = 1\nvalue = [1, 0]\nclass = No"] ;
984 -> 985 ;
986 [label="gini = 0.0\nsamples = 1\nvalue = [0, 1]\nclass = Yes"] ;
984 -> 986 ;
987 [label="gini = 0.0\nsamples = 4\nvalue = [4, 0]\nclass = No"] ;
983 -> 987 ;
988 [label="Sales <= 36.3\ngini = 0.124\nsamples = 15\nvalue = [14, 1]\nclass = No"] ;
876 -> 988 ;
989 [label="gini = 0.0\nsamples = 1\nvalue = [0, 1]\nclass = Yes"] ;
988 -> 989 ;
990 [label="gini = 0.0\nsamples = 14\nvalue = [14, 0]\nclass = No"] ;
988 -> 990 ;
991 [label="Duration <= 6.5\ngini = 0.087\nsamples = 22\nvalue = [21, 1]\nclass = No"] ;
875 -> 991 ;
992 [label="Commision <= 32.67\ngini = 0.444\nsamples = 3\nvalue = [2, 1]\nclass = No"] ;
991 -> 992 ;
993 [label="gini = 0.0\nsamples = 2\nvalue = [2, 0]\nclass = No"] ;
992 -> 993 ;
994 [label="gini = 0.0\nsamples = 1\nvalue = [0, 1]\nclass = Yes"] ;
992 -> 994 ;
995 [label="gini = 0.0\nsamples = 19\nvalue = [19, 0]\nclass = No"] ;
991 -> 995 ;
996 [label="Duration <= 107.5\ngini = 0.455\nsamples = 117\nvalue = [76, 41]\nclass = No"] ;
874 -> 996 ;
997 [label="Duration <= 104.0\ngini = 0.484\nsamples = 85\nvalue = [50, 35]\nclass = No"] ;
996 -> 997 ;
998 [label="Sales <= 49.25\ngini = 0.479\nsamples = 83\nvalue = [50, 33]\nclass = No"] ;
997 -> 998 ;
999 [label="Sales <= 34.5\ngini = 0.401\nsamples = 36\nvalue = [26, 10]\nclass = No"] ;
998 -> 999 ;
1000 [label="Duration <= 46.0\ngini = 0.48\nsamples = 5\nvalue = [2, 3]\nclass = Yes"] ;
999 -> 1000 ;
1001 [label="gini = 0.0\nsamples = 1\nvalue = [0, 1]\nclass = Yes"] ;
1000 -> 1001 ;
1002 [label="Duration <= 58.0\ngini = 0.5\nsamples = 4\nvalue = [2, 2]\nclass = No"] ;
1000 -> 1002 ;
1003 [label="Duration <= 49.5\ngini = 0.444\nsamples = 3\nvalue = [2, 1]\nclass = No"] ;
1002 -> 1003 ;
1004 [label="gini = 0.5\nsamples = 2\nvalue = [1, 1]\nclass = No"] ;
1003 -> 1004 ;
1005 [label="gini = 0.0\nsamples = 1\nvalue = [1, 0]\nclass = No"] ;
1003 -> 1005 ;
1006 [label="gini = 0.0\nsamples = 1\nvalue = [0, 1]\nclass = Yes"] ;
1002 -> 1006 ;
1007 [label="Agency_Code <= 1.5\ngini = 0.35\nsamples = 31\nvalue = [24, 7]\nclass = No"] ;
999 -> 1007 ;
1008 [label="Destination <= 1.5\ngini = 0.165\nsamples = 11\nvalue = [10, 1]\nclass = No"] ;
1007 -> 1008 ;
1009 [label="gini = 0.0\nsamples = 8\nvalue = [8, 0]\nclass = No"] ;
1008 -> 1009 ;
1010 [label="Duration <= 41.0\ngini = 0.444\nsamples = 3\nvalue = [2, 1]\nclass = No"] ;
1008 -> 1010 ;
1011 [label="gini = 0.0\nsamples = 1\nvalue = [1, 0]\nclass = No"] ;
1010 -> 1011 ;
1012 [label="Duration <= 65.0\ngini = 0.5\nsamples = 2\nvalue = [1, 1]\nclass = No"] ;
1010 -> 1012 ;
1013 [label="gini = 0.0\nsamples = 1\nvalue = [0, 1]\nclass = Yes"] ;
1012 -> 1013 ;
1014 [label="gini = 0.0\nsamples = 1\nvalue = [1, 0]\nclass = No"] ;
1012 -> 1014 ;
1015 [label="Commision <= 13.5\ngini = 0.42\nsamples = 20\nvalue = [14, 6]\nclass = No"] ;
1007 -> 1015 ;
1016 [label="Duration <= 36.5\ngini = 0.388\nsamples = 19\nvalue = [14, 5]\nclass = No"] ;
1015 -> 1016 ;
1017 [label="gini = 0.0\nsamples = 1\nvalue = [0, 1]\nclass = Yes"] ;
1016 -> 1017 ;
1018 [label="Duration <= 74.0\ngini = 0.346\nsamples = 18\nvalue = [14, 4]\nclass = No"] ;
1016 -> 1018 ;
1019 [label="Duration <= 39.5\ngini = 0.165\nsamples = 11\nvalue = [10, 1]\nclass = No"] ;
1018 -> 1019 ;
1020 [label="Duration <= 38.5\ngini = 0.444\nsamples = 3\nvalue = [2, 1]\nclass = No"] ;
1019 -> 1020 ;
1021 [label="gini = 0.0\nsamples = 2\nvalue = [2, 0]\nclass = No"] ;
1020 -> 1021 ;
1022 [label="gini = 0.0\nsamples = 1\nvalue = [0, 1]\nclass = Yes"] ;
1020 -> 1022 ;
1023 [label="gini = 0.0\nsamples = 8\nvalue = [8, 0]\nclass = No"] ;
1019 -> 1023 ;
1024 [label="Sales <= 35.5\ngini = 0.49\nsamples = 7\nvalue = [4, 3]\nclass = No"] ;
1018 -> 1024 ;
1025 [label="gini = 0.0\nsamples = 3\nvalue = [3, 0]\nclass = No"] ;
1024 -> 1025 ;
1026 [label="Duration <= 83.0\ngini = 0.375\nsamples = 4\nvalue = [1, 3]\nclass = Yes"] ;
1024 -> 1026 ;
1027 [label="Sales <= 38.5\ngini = 0.5\nsamples = 2\nvalue = [1, 1]\nclass = No"] ;
1026 -> 1027 ;
1028 [label="gini = 0.0\nsamples = 1\nvalue = [0, 1]\nclass = Yes"] ;
1027 -> 1028 ;
1029 [label="gini = 0.0\nsamples = 1\nvalue = [1, 0]\nclass = No"] ;
1027 -> 1029 ;
1030 [label="gini = 0.0\nsamples = 2\nvalue = [0, 2]\nclass = Yes"] ;
1026 -> 1030 ;
1031 [label="gini = 0.0\nsamples = 1\nvalue = [0, 1]\nclass = Yes"] ;
1015 -> 1031 ;
1032 [label="Sales <= 56.5\ngini = 0.5\nsamples = 47\nvalue = [24, 23]\nclass = No"] ;
998 -> 1032 ;
1033 [label="Duration <= 58.5\ngini = 0.198\nsamples = 9\nvalue = [1, 8]\nclass = Yes"] ;
1032 -> 1033 ;
1034 [label="Duration <= 47.0\ngini = 0.444\nsamples = 3\nvalue = [1, 2]\nclass = Yes"] ;
1033 -> 1034 ;
1035 [label="gini = 0.0\nsamples = 2\nvalue = [0, 2]\nclass = Yes"] ;
1034 -> 1035 ;
1036 [label="gini = 0.0\nsamples = 1\nvalue = [1, 0]\nclass = No"] ;
1034 -> 1036 ;
1037 [label="gini = 0.0\nsamples = 6\nvalue = [0, 6]\nclass = Yes"] ;
1033 -> 1037 ;
1038 [label="Duration <= 68.0\ngini = 0.478\nsamples = 38\nvalue = [23, 15]\nclass = No"] ;
1032 -> 1038 ;
1039 [label="Commision <= 26.73\ngini = 0.437\nsamples = 31\nvalue = [21, 10]\nclass = No"] ;
1038 -> 1039 ;
1040 [label="Duration <= 39.5\ngini = 0.305\nsamples = 16\nvalue = [13, 3]\nclass = No"] ;
1039 -> 1040 ;
1041 [label="Destination <= 1.0\ngini = 0.444\nsamples = 3\nvalue = [1, 2]\nclass = Yes"] ;
1040 -> 1041 ;
1042 [label="gini = 0.0\nsamples = 2\nvalue = [0, 2]\nclass = Yes"] ;
1041 -> 1042 ;
1043 [label="gini = 0.0\nsamples = 1\nvalue = [1, 0]\nclass = No"] ;
1041 -> 1043 ;
1044 [label="Sales <= 69.5\ngini = 0.142\nsamples = 13\nvalue = [12, 1]\nclass = No"] ;
1040 -> 1044 ;
1045 [label="Sales <= 65.5\ngini = 0.278\nsamples = 6\nvalue = [5, 1]\nclass = No"] ;
1044 -> 1045 ;
1046 [label="gini = 0.0\nsamples = 5\nvalue = [5, 0]\nclass = No"] ;
1045 -> 1046 ;
1047 [label="gini = 0.0\nsamples = 1\nvalue = [0, 1]\nclass = Yes"] ;
1045 -> 1047 ;
1048 [label="gini = 0.0\nsamples = 7\nvalue = [7, 0]\nclass = No"] ;
1044 -> 1048 ;
1049 [label="Duration <= 38.5\ngini = 0.498\nsamples = 15\nvalue = [8, 7]\nclass = No"] ;
1039 -> 1049 ;
1050 [label="gini = 0.0\nsamples = 2\nvalue = [2, 0]\nclass = No"] ;
1049 -> 1050 ;
1051 [label="Duration <= 60.0\ngini = 0.497\nsamples = 13\nvalue = [6, 7]\nclass = Yes"] ;
1049 -> 1051 ;
1052 [label="Destination <= 0.5\ngini = 0.463\nsamples = 11\nvalue = [4, 7]\nclass = Yes"] ;
1051 -> 1052 ;
1053 [label="gini = 0.0\nsamples = 1\nvalue = [1, 0]\nclass = No"] ;
1052 -> 1053 ;
1054 [label="Duration <= 51.5\ngini = 0.42\nsamples = 10\nvalue = [3, 7]\nclass = Yes"] ;
1052 -> 1054 ;
1055 [label="Duration <= 44.0\ngini = 0.278\nsamples = 6\nvalue = [1, 5]\nclass = Yes"] ;
1054 -> 1055 ;
1056 [label="Duration <= 40.5\ngini = 0.5\nsamples = 2\nvalue = [1, 1]\nclass = No"] ;
1055 -> 1056 ;
1057 [label="gini = 0.0\nsamples = 1\nvalue = [0, 1]\nclass = Yes"] ;
1056 -> 1057 ;
1058 [label="gini = 0.0\nsamples = 1\nvalue = [1, 0]\nclass = No"] ;
1056 -> 1058 ;
1059 [label="gini = 0.0\nsamples = 4\nvalue = [0, 4]\nclass = Yes"] ;
1055 -> 1059 ;
1060 [label="Duration <= 54.0\ngini = 0.5\nsamples = 4\nvalue = [2, 2]\nclass = No"] ;
1054 -> 1060 ;
1061 [label="gini = 0.0\nsamples = 2\nvalue = [2, 0]\nclass = No"] ;
1060 -> 1061 ;
1062 [label="gini = 0.0\nsamples = 2\nvalue = [0, 2]\nclass = Yes"] ;
1060 -> 1062 ;
1063 [label="gini = 0.0\nsamples = 2\nvalue = [2, 0]\nclass = No"] ;
1051 -> 1063 ;
1064 [label="Duration <= 81.0\ngini = 0.408\nsamples = 7\nvalue = [2, 5]\nclass = Yes"] ;
1038 -> 1064 ;
1065 [label="gini = 0.0\nsamples = 4\nvalue = [0, 4]\nclass = Yes"] ;
1064 -> 1065 ;
1066 [label="Destination <= 1.5\ngini = 0.444\nsamples = 3\nvalue = [2, 1]\nclass = No"] ;
1064 -> 1066 ;
1067 [label="gini = 0.0\nsamples = 2\nvalue = [2, 0]\nclass = No"] ;
1066 -> 1067 ;
1068 [label="gini = 0.0\nsamples = 1\nvalue = [0, 1]\nclass = Yes"] ;
1066 -> 1068 ;
1069 [label="gini = 0.0\nsamples = 2\nvalue = [0, 2]\nclass = Yes"] ;
997 -> 1069 ;
1070 [label="Duration <= 390.5\ngini = 0.305\nsamples = 32\nvalue = [26, 6]\nclass = No"] ;
996 -> 1070 ;
1071 [label="Destination <= 0.5\ngini = 0.271\nsamples = 31\nvalue = [26, 5]\nclass = No"] ;
1070 -> 1071 ;
1072 [label="Duration <= 134.0\ngini = 0.351\nsamples = 22\nvalue = [17, 5]\nclass = No"] ;
1071 -> 1072 ;
1073 [label="Duration <= 127.0\ngini = 0.469\nsamples = 8\nvalue = [5, 3]\nclass = No"] ;
1072 -> 1073 ;
1074 [label="Sales <= 67.65\ngini = 0.278\nsamples = 6\nvalue = [5, 1]\nclass = No"] ;
1073 -> 1074 ;
1075 [label="gini = 0.0\nsamples = 4\nvalue = [4, 0]\nclass = No"] ;
1074 -> 1075 ;
1076 [label="Duration <= 115.5\ngini = 0.5\nsamples = 2\nvalue = [1, 1]\nclass = No"] ;
1074 -> 1076 ;
1077 [label="gini = 0.0\nsamples = 1\nvalue = [1, 0]\nclass = No"] ;
1076 -> 1077 ;
1078 [label="gini = 0.0\nsamples = 1\nvalue = [0, 1]\nclass = Yes"] ;
1076 -> 1078 ;
1079 [label="gini = 0.0\nsamples = 2\nvalue = [0, 2]\nclass = Yes"] ;
1073 -> 1079 ;
1080 [label="Sales <= 37.5\ngini = 0.245\nsamples = 14\nvalue = [12, 2]\nclass = No"] ;
1072 -> 1080 ;
1081 [label="gini = 0.0\nsamples = 1\nvalue = [0, 1]\nclass = Yes"] ;
1080 -> 1081 ;
1082 [label="Duration <= 230.5\ngini = 0.142\nsamples = 13\nvalue = [12, 1]\nclass = No"] ;
1080 -> 1082 ;
1083 [label="gini = 0.0\nsamples = 9\nvalue = [9, 0]\nclass = No"] ;
1082 -> 1083 ;
1084 [label="Duration <= 255.0\ngini = 0.375\nsamples = 4\nvalue = [3, 1]\nclass = No"] ;
1082 -> 1084 ;
1085 [label="gini = 0.0\nsamples = 1\nvalue = [0, 1]\nclass = Yes"] ;
1084 -> 1085 ;
1086 [label="gini = 0.0\nsamples = 3\nvalue = [3, 0]\nclass = No"] ;
1084 -> 1086 ;
1087 [label="gini = 0.0\nsamples = 9\nvalue = [9, 0]\nclass = No"] ;
1071 -> 1087 ;
1088 [label="gini = 0.0\nsamples = 1\nvalue = [0, 1]\nclass = Yes"] ;
1070 -> 1088 ;
